{"learner":{"attributes":{"scikit_learn":"{\"_estimator_type\": \"classifier\"}"},"feature_names":[],"feature_types":[],"gradient_booster":{"model":{"cats":{"enc":[],"feature_segments":[],"sorted_idx":[]},"gbtree_model_param":{"num_parallel_tree":"1","num_trees":"500"},"iteration_indptr":[0,5,10,15,20,25,30,35,40,45,50,55,60,65,70,75,80,85,90,95,100,105,110,115,120,125,130,135,140,145,150,155,160,165,170,175,180,185,190,195,200,205,210,215,220,225,230,235,240,245,250,255,260,265,270,275,280,285,290,295,300,305,310,315,320,325,330,335,340,345,350,355,360,365,370,375,380,385,390,395,400,405,410,415,420,425,430,435,440,445,450,455,460,465,470,475,480,485,490,495,500],"tree_info":[0,1,2,3,4,0,1,2,3,4,0,1,2,3,4,0,1,2,3,4,0,1,2,3,4,0,1,2,3,4,0,1,2,3,4,0,1,2,3,4,0,1,2,3,4,0,1,2,3,4,0,1,2,3,4,0,1,2,3,4,0,1,2,3,4,0,1,2,3,4,0,1,2,3,4,0,1,2,3,4,0,1,2,3,4,0,1,2,3,4,0,1,2,3,4,0,1,2,3,4,0,1,2,3,4,0,1,2,3,4,0,1,2,3,4,0,1,2,3,4,0,1,2,3,4,0,1,2,3,4,0,1,2,3,4,0,1,2,3,4,0,1,2,3,4,0,1,2,3,4,0,1,2,3,4,0,1,2,3,4,0,1,2,3,4,0,1,2,3,4,0,1,2,3,4,0,1,2,3,4,0,1,2,3,4,0,1,2,3,4,0,1,2,3,4,0,1,2,3,4,0,1,2,3,4,0,1,2,3,4,0,1,2,3,4,0,1,2,3,4,0,1,2,3,4,0,1,2,3,4,0,1,2,3,4,0,1,2,3,4,0,1,2,3,4,0,1,2,3,4,0,1,2,3,4,0,1,2,3,4,0,1,2,3,4,0,1,2,3,4,0,1,2,3,4,0,1,2,3,4,0,1,2,3,4,0,1,2,3,4,0,1,2,3,4,0,1,2,3,4,0,1,2,3,4,0,1,2,3,4,0,1,2,3,4,0,1,2,3,4,0,1,2,3,4,0,1,2,3,4,0,1,2,3,4,0,1,2,3,4,0,1,2,3,4,0,1,2,3,4,0,1,2,3,4,0,1,2,3,4,0,1,2,3,4,0,1,2,3,4,0,1,2,3,4,0,1,2,3,4,0,1,2,3,4,0,1,2,3,4,0,1,2,3,4,0,1,2,3,4,0,1,2,3,4,0,1,2,3,4,0,1,2,3,4,0,1,2,3,4,0,1,2,3,4,0,1,2,3,4,0,1,2,3,4,0,1,2,3,4,0,1,2,3,4,0,1,2,3,4,0,1,2,3,4,0,1,2,3,4,0,1,2,3,4,0,1,2,3,4,0,1,2,3,4,0,1,2,3,4,0,1,2,3,4,0,1,2,3,4,0,1,2,3,4,0,1,2,3,4],"trees":[{"base_weights":[7.557307E-6,3.521123E-1,-1.5384264E0,4.2578816E-1,-1.9595926E-1,-9.935004E-1,-1.8664567E0,6.302754E-1,3.375652E-1,3.0837175E-2,-5.4802257E-1,-4.6254602E-1,-1.3364763E0,1.9344527E-2,-1.8926207E0,6.5779144E-1,4.3212697E-1,4.8842758E-1,2.8947398E-1,-7.410148E-1,9.0166464E-2,-7.638598E-2,-8.9511055E-1,-1.3025095E0,-3.4381706E-1,-5.845493E-1,-1.5346543E0,-6.026672E-1,2.8406104E-1,-1.6487224E0,-1.9969401E0,6.583876E-1,-4.7755215E-1,4.7802323E-1,2.3893568E-1,6.4710045E-1,4.6150678E-1,3.0814597E-1,-2.2580919E-1,-2.0824338E-1,-9.0323085E-1,-3.8812098E-1,1.830297E-1,1.2221E-1,-8.663385E-1,-1.0183337E0,-3.2586664E-1,8.720199E-2,-1.4553903E0,-1.3384047E-1,-7.759433E-1,-6.8067715E-2,-8.25391E-1,-1.2349808E0,-1.7184055E0,-9.6764797E-1,1.4824522E-1,4.1664398E-1,-5.4542243E-1,-1.1161492E0,-1.8095348E0,-3.8089287E-2,-1.9978575E0,-1.0807114E-1,1.9769523E-1,1.04276404E-1,-3.2282066E-1,1.7735255E-1,1.3064294E-1,7.696191E-2,-2.451279E-1,-3.8089287E-2,1.9477017E-1,1.4677404E-1,9.672006E-2,1.0134269E-1,2.3423772E-2,-7.2154226E-3,-2.7013758E-1,5.3338003E-3,-3.354311E-1,-3.1543198E-1,-1.4170355E-1,-1.7295805E-1,1.5244209E-2,1.16092645E-1,2.9006274E-2,-2.6350293E-1,5.5775974E-2,-2.2271504E-1,-5.470059E-1,-2.6365602E-1,-3.994434E-1,-2.2478212E-2,-2.3039098E-1,1.2993115E-1,-1.9178627E-1,-4.4909686E-1,-7.944926E-2,4.3538943E-2,-9.295002E-2,-3.236371E-1,-1.4288789E-1,-1.6052269E-3,-3.333815E-1,-3.0043364E-1,-6.7939036E-2,-3.958948E-1,-1.0535397E-1,-5.1834613E-1,5.9359107E-2,1.04276404E-1,-3.4963375E-1,1.448671E-1,-1.8045497E-1,-2.755014E-1,1.04276404E-1,-2.3738521E-1,-4.2439958E-1,-4.7790092E-1,-5.7312095E-1,-3.8089287E-2,-5.9963274E-1],"categories":[],"categories_nodes":[],"categories_segments":[],"categories_sizes":[],"default_left":[0,0,0,0,0,0,0,0,0,0,0,0,0,0,0,0,1,0,1,0,0,0,0,0,0,0,0,0,0,0,0,0,0,0,1,0,1,1,0,1,1,0,0,0,0,0,0,1,1,0,0,0,0,0,1,0,0,0,0,0,0,0,0,0,0,0,0,0,0,0,0,0,0,0,0,0,0,0,0,0,0,0,0,0,0,0,0,0,0,0,0,0,0,0,0,0,0,0,0,0,0,0,0,0,0,0,0,0,0,0,0,0,0,0,0,0,0,0,0,0,0,0,0],"id":0,"left_children":[1,3,5,7,9,11,13,15,17,19,21,23,25,27,29,31,33,35,37,39,41,43,45,47,49,51,53,55,57,59,61,63,65,67,69,71,73,75,77,79,81,83,85,87,89,91,93,95,97,99,101,103,105,107,109,111,-1,113,115,117,119,-1,121,-1,-1,-1,-1,-1,-1,-1,-1,-1,-1,-1,-1,-1,-1,-1,-1,-1,-1,-1,-1,-1,-1,-1,-1,-1,-1,-1,-1,-1,-1,-1,-1,-1,-1,-1,-1,-1,-1,-1,-1,-1,-1,-1,-1,-1,-1,-1,-1,-1,-1,-1,-1,-1,-1,-1,-1,-1,-1,-1,-1],"loss_changes":[1.4334764E4,8.6963574E2,8.791494E2,3.4224805E2,2.0382336E2,3.3703406E2,1.5178027E2,3.0904541E1,9.608838E1,7.120066E1,1.6364871E2,7.227396E1,1.6688892E2,7.263863E0,7.3887695E1,3.7131348E0,6.096161E0,1.3390381E1,9.686035E1,9.4038315E0,6.417908E1,6.679247E1,4.0073273E1,1.9237488E1,5.7990303E1,2.9359016E1,4.6913086E1,5.754245E0,3.6250165E0,7.630029E1,3.381836E0,3.286377E0,1.9615414E0,2.4624023E0,2.746337E0,8.459625E-1,1.04279785E1,6.62298E1,4.7941063E1,5.6145425E0,4.917633E0,1.9463203E1,2.1258656E1,2.1872124E1,8.791336E0,1.9491821E1,1.14774685E1,2.7541332E0,3.6197052E0,2.125916E1,1.8467339E1,4.9856405E0,1.6768867E1,2.513092E1,1.0254761E1,3.0656767E0,0E0,2.1254215E0,1.8813318E0,1.9701569E1,1.2262695E1,0E0,3.3867188E0,0E0,0E0,0E0,0E0,0E0,0E0,0E0,0E0,0E0,0E0,0E0,0E0,0E0,0E0,0E0,0E0,0E0,0E0,0E0,0E0,0E0,0E0,0E0,0E0,0E0,0E0,0E0,0E0,0E0,0E0,0E0,0E0,0E0,0E0,0E0,0E0,0E0,0E0,0E0,0E0,0E0,0E0,0E0,0E0,0E0,0E0,0E0,0E0,0E0,0E0,0E0,0E0,0E0,0E0,0E0,0E0,0E0,0E0,0E0,0E0],"parents":[2147483647,0,0,1,1,2,2,3,3,4,4,5,5,6,6,7,7,8,8,9,9,10,10,11,11,12,12,13,13,14,14,15,15,16,16,17,17,18,18,19,19,20,20,21,21,22,22,23,23,24,24,25,25,26,26,27,27,28,28,29,29,30,30,31,31,32,32,33,33,34,34,35,35,36,36,37,37,38,38,39,39,40,40,41,41,42,42,43,43,44,44,45,45,46,46,47,47,48,48,49,49,50,50,51,51,52,52,53,53,54,54,55,55,57,57,58,58,59,59,60,60,62,62],"right_children":[2,4,6,8,10,12,14,16,18,20,22,24,26,28,30,32,34,36,38,40,42,44,46,48,50,52,54,56,58,60,62,64,66,68,70,72,74,76,78,80,82,84,86,88,90,92,94,96,98,100,102,104,106,108,110,112,-1,114,116,118,120,-1,122,-1,-1,-1,-1,-1,-1,-1,-1,-1,-1,-1,-1,-1,-1,-1,-1,-1,-1,-1,-1,-1,-1,-1,-1,-1,-1,-1,-1,-1,-1,-1,-1,-1,-1,-1,-1,-1,-1,-1,-1,-1,-1,-1,-1,-1,-1,-1,-1,-1,-1,-1,-1,-1,-1,-1,-1,-1,-1,-1,-1],"split_conditions":[-4.399207E-2,-4.9224902E-2,-4.7270037E-2,-6.0513064E-2,-5.705182E-2,8.92528E-1,-1.048245E0,-5.252985E-2,-7.247828E-1,1.1547105E0,2.4560367E-1,-5.008231E-1,-5.7954755E-2,1.2021263E-1,-3.0967066E-2,5.101282E0,2.8645608E-1,-1.048245E0,3.285598E-1,-5.9997696E-2,6.650614E-1,-4.8263453E-2,2.3318273E-1,-4.0132064E-1,-3.4628056E-2,-5.925899E-2,-3.8208414E-2,2.031497E0,6.9011897E-1,-7.7858485E-2,8.721671E-1,7.616615E-1,4.9681272E-2,-7.247828E-1,6.690268E-1,3.326761E-1,2.5784105E-1,5.2251244E-1,-5.9997696E-2,2.8016222E-1,2.4489905E-1,1.2980981E-2,1E0,-4.9348304E-1,9.903507E-4,-5.2764952E-2,-5.1483728E-2,3.952516E-1,4.158725E-1,-4.0132064E-1,4.1668418E-1,-1.4479723E-2,1.2980981E-2,6.3688594E-1,5.9528977E-1,5.7975537E-1,1.4824522E-1,1.5279895E-1,8.570877E-1,-2.911981E-2,8.92528E-1,-3.8089287E-2,3.2737285E-1,-1.0807114E-1,1.9769523E-1,1.04276404E-1,-3.2282066E-1,1.7735255E-1,1.3064294E-1,7.696191E-2,-2.451279E-1,-3.8089287E-2,1.9477017E-1,1.4677404E-1,9.672006E-2,1.0134269E-1,2.3423772E-2,-7.2154226E-3,-2.7013758E-1,5.3338003E-3,-3.354311E-1,-3.1543198E-1,-1.4170355E-1,-1.7295805E-1,1.5244209E-2,1.16092645E-1,2.9006274E-2,-2.6350293E-1,5.5775974E-2,-2.2271504E-1,-5.470059E-1,-2.6365602E-1,-3.994434E-1,-2.2478212E-2,-2.3039098E-1,1.2993115E-1,-1.9178627E-1,-4.4909686E-1,-7.944926E-2,4.3538943E-2,-9.295002E-2,-3.236371E-1,-1.4288789E-1,-1.6052269E-3,-3.333815E-1,-3.0043364E-1,-6.7939036E-2,-3.958948E-1,-1.0535397E-1,-5.1834613E-1,5.9359107E-2,1.04276404E-1,-3.4963375E-1,1.448671E-1,-1.8045497E-1,-2.755014E-1,1.04276404E-1,-2.3738521E-1,-4.2439958E-1,-4.7790092E-1,-5.7312095E-1,-3.8089287E-2,-5.9963274E-1],"split_indices":[8,8,7,7,7,15,15,8,15,296,15,1,7,254,7,3,311,15,296,14,224,14,1,15,8,7,8,1,266,15,170,33,1,15,248,258,311,311,14,283,287,1,314,1,5,14,7,227,287,15,1,9,1,1,223,281,0,10,1,8,15,0,271,0,0,0,0,0,0,0,0,0,0,0,0,0,0,0,0,0,0,0,0,0,0,0,0,0,0,0,0,0,0,0,0,0,0,0,0,0,0,0,0,0,0,0,0,0,0,0,0,0,0,0,0,0,0,0,0,0,0,0,0],"split_type":[0,0,0,0,0,0,0,0,0,0,0,0,0,0,0,0,0,0,0,0,0,0,0,0,0,0,0,0,0,0,0,0,0,0,0,0,0,0,0,0,0,0,0,0,0,0,0,0,0,0,0,0,0,0,0,0,0,0,0,0,0,0,0,0,0,0,0,0,0,0,0,0,0,0,0,0,0,0,0,0,0,0,0,0,0,0,0,0,0,0,0,0,0,0,0,0,0,0,0,0,0,0,0,0,0,0,0,0,0,0,0,0,0,0,0,0,0,0,0,0,0,0,0],"sum_hessian":[2.6461047E4,2.1533418E4,4.927629E3,1.8981945E4,2.5514717E3,1.8531664E3,3.0744626E3,5.7193125E3,1.3262634E4,1.5523636E3,9.9910803E2,7.2820105E2,1.1249655E3,4.2075478E1,3.032387E3,5.0199E3,6.9941254E2,3.2036416E3,1.0058992E4,1.0998678E2,1.442377E3,4.2407654E2,5.7503156E2,8.8949036E1,6.39252E2,2.3547504E2,8.8949036E2,1.2179744E1,2.9895735E1,9.134808E2,2.1189062E3,5.017685E3,2.2144988E0,5.6395905E2,1.354535E2,4.613539E2,2.7422876E3,9.707625E3,3.5136716E2,2.6204903E1,8.3781876E1,2.339987E2,1.2083782E3,3.395565E2,8.4520035E1,4.7205734E2,1.029742E2,8.857995E0,8.009104E1,4.310891E2,2.0816289E2,7.529296E1,1.6018208E2,3.410328E2,5.484575E2,9.227078E0,2.952665E0,2.6204903E1,3.6908314E0,2.1369914E2,6.997816E2,1.1072494E0,2.117799E3,2.583582E0,5.0151016E3,1.1072494E0,1.1072494E0,1.5058592E2,4.133731E2,1.3397717E2,1.4763325E0,1.1072494E0,4.6024667E2,2.2842556E3,4.5803217E2,8.59853E3,1.1090948E3,2.712761E2,8.009104E1,2.1775906E1,4.4289975E0,6.12678E1,2.251407E1,1.6350383E2,7.049488E1,3.5837973E2,8.499985E2,1.9561407E1,3.199951E2,7.640021E1,8.119829E0,3.2922217E2,1.4283517E2,6.643497E1,3.653923E1,6.274413E0,2.583582E0,7.7138374E1,2.952665E0,1.6682558E2,2.6426352E2,1.0223603E2,1.0592686E2,7.1971214E1,3.3217483E0,1.23273766E2,3.6908314E1,3.10768E2,3.0264816E1,5.4587396E2,2.583582E0,1.1072494E0,8.119829E0,2.5097652E1,1.1072494E0,2.583582E0,1.1072494E0,1.0408144E2,1.0961769E2,2.2772429E2,4.7205734E2,1.1072494E0,2.116692E3],"tree_param":{"num_deleted":"0","num_feature":"325","num_nodes":"123","size_leaf_vector":"1"}},{"base_weights":[-7.42546E-7,-2.8054452E-1,8.0773103E-1,-5.5468976E-1,-1.6783024E-1,1.0786256E0,-3.4591904E-1,-5.909543E-1,-2.9430485E-1,-1.902163E-1,5.0775516E-1,5.167223E-1,1.3068216E0,5.378435E-1,-4.5201227E-1,9.281543E-2,-5.9150296E-1,-3.517331E-1,-5.344666E-2,-3.8348058E-1,-1.2922153E-1,1.8950516E-1,1.377517E0,3.0176717E-1,1.0264422E0,1.3977207E0,5.942985E-1,2.0223365E0,3.884415E-1,-1.0520073E-1,-5.424633E-1,-5.917774E-1,5.287362E-2,-5.072178E-1,-2.9379797E-1,7.2227013E-1,-9.3752906E-2,-5.7496816E-1,-3.508602E-1,-1.635817E-1,3.4144646E-1,-2.13107E-1,3.211558E-1,-3.626344E-1,1.5088886E0,1.3613946E0,2.1477975E-1,3.8704306E-1,1.2899853E0,8.1230265E-1,1.5410326E0,1.0637436E0,8.659401E-2,1.5484579E-1,2.21715E0,-1.4208911E-1,6.585857E-1,3.6059576E-1,-2.7264658E-1,-3.6280245E-1,-5.691658E-1,-1.776155E-1,5.410179E-3,1.9246766E-2,-1.5705018E-1,-1.0205086E-1,-1.3137241E-2,1.9246766E-2,4.8788962E-1,-3.599295E-2,3.4288427E-1,5.287362E-2,-1.7335965E-1,-1.1407017E-1,-3.8628258E-2,-6.0068797E-2,3.6338564E-2,6.466926E-2,3.6509523E-1,2.3271826E-1,-9.281689E-2,1.647293E-1,1.17466105E-2,5.287362E-2,-1.4763273E-1,2.6524827E-1,5.392879E-1,4.398599E-1,4.8476227E-2,2.6278777E-2,2.4253927E-1,4.425793E-1,5.332348E-2,1.1877126E-1,4.5985803E-1,3.8748913E-2,4.8754975E-1,4.1887838E-1,5.267601E-1,-5.6948442E-2,3.7830406E-1,5.9473497E-1,6.099516E-3,7.653331E-1,3.1457457E-1,-1.1272617E-1,1.9642913E-1,2.9941776E-1,2.6980205E-2,-8.234938E-2,1.8701792E-1,-1.0256768E-1,6.110634E-2,2.3588386E-1,-1.1787255E-1,-1.4160423E-2,-1.7174533E-1],"categories":[],"categories_nodes":[],"categories_segments":[],"categories_sizes":[],"default_left":[0,0,0,0,1,0,0,0,1,0,0,0,0,0,0,0,0,0,0,0,0,0,0,0,0,0,0,0,1,0,0,0,0,0,1,0,1,0,1,1,0,0,0,0,0,1,1,0,0,0,0,0,0,0,0,0,0,0,0,0,0,0,0,0,0,0,0,0,0,0,0,0,0,0,0,0,0,0,0,0,0,0,0,0,0,0,0,0,0,0,0,0,0,0,0,0,0,0,0,0,0,0,0,0,0,0,0,0,0,0,0,0,0,0,0,0,0],"id":1,"left_children":[1,3,5,7,9,11,13,15,17,19,21,23,25,27,29,-1,31,33,35,37,39,41,43,45,47,49,51,53,55,57,59,61,-1,63,65,67,69,71,73,75,77,79,81,83,85,87,89,91,93,95,97,99,101,-1,103,105,107,109,111,113,115,-1,-1,-1,-1,-1,-1,-1,-1,-1,-1,-1,-1,-1,-1,-1,-1,-1,-1,-1,-1,-1,-1,-1,-1,-1,-1,-1,-1,-1,-1,-1,-1,-1,-1,-1,-1,-1,-1,-1,-1,-1,-1,-1,-1,-1,-1,-1,-1,-1,-1,-1,-1,-1,-1,-1,-1],"loss_changes":[4.341789E3,4.3933606E2,1.5439812E3,3.8946777E1,1.5252866E2,5.122529E2,8.8380486E1,1.9787598E0,7.014183E0,1.1496103E2,8.9294655E1,1.26459564E2,1.8338477E2,2.1661068E1,2.6287338E1,0E0,8.6987305E-1,3.5477371E0,3.1652792E0,1.4414795E1,1.2001322E2,1.2684818E1,2.0324203E1,7.485052E1,5.72619E1,2.1031299E2,7.701959E1,1.5013237E0,1.3449793E1,1.3744578E1,2.9878387E0,6.1828613E-1,0E0,1.0572224E0,3.4788132E0,2.8753927E0,3.220065E0,8.397522E-1,1.3011597E1,7.215944E1,5.539401E1,5.8814764E0,1.1534172E1,5.666811E-1,1.2955246E1,7.516487E0,5.690432E1,2.2850136E1,5.200888E1,2.7634763E2,6.051953E1,4.1787872E1,1.9622751E1,0E0,3.223343E-1,6.2536607E0,1.1864704E1,7.964561E0,4.3333845E0,3.3849258E0,9.740753E-1,0E0,0E0,0E0,0E0,0E0,0E0,0E0,0E0,0E0,0E0,0E0,0E0,0E0,0E0,0E0,0E0,0E0,0E0,0E0,0E0,0E0,0E0,0E0,0E0,0E0,0E0,0E0,0E0,0E0,0E0,0E0,0E0,0E0,0E0,0E0,0E0,0E0,0E0,0E0,0E0,0E0,0E0,0E0,0E0,0E0,0E0,0E0,0E0,0E0,0E0,0E0,0E0,0E0,0E0,0E0,0E0],"parents":[2147483647,0,0,1,1,2,2,3,3,4,4,5,5,6,6,7,7,8,8,9,9,10,10,11,11,12,12,13,13,14,14,16,16,17,17,18,18,19,19,20,20,21,21,22,22,23,23,24,24,25,25,26,26,27,27,28,28,29,29,30,30,31,31,33,33,34,34,35,35,36,36,37,37,38,38,39,39,40,40,41,41,42,42,43,43,44,44,45,45,46,46,47,47,48,48,49,49,50,50,51,51,52,52,54,54,55,55,56,56,57,57,58,58,59,59,60,60],"right_children":[2,4,6,8,10,12,14,16,18,20,22,24,26,28,30,-1,32,34,36,38,40,42,44,46,48,50,52,54,56,58,60,62,-1,64,66,68,70,72,74,76,78,80,82,84,86,88,90,92,94,96,98,100,102,-1,104,106,108,110,112,114,116,-1,-1,-1,-1,-1,-1,-1,-1,-1,-1,-1,-1,-1,-1,-1,-1,-1,-1,-1,-1,-1,-1,-1,-1,-1,-1,-1,-1,-1,-1,-1,-1,-1,-1,-1,-1,-1,-1,-1,-1,-1,-1,-1,-1,-1,-1,-1,-1,-1,-1,-1,-1,-1,-1,-1,-1],"split_conditions":[-4.8398666E-2,-6.0513064E-2,1.7289726E-2,-5.252985E-2,3.258636E-1,-5.705182E-2,-6.260594E-3,7.616615E-1,2.8645608E-1,-7.247828E-1,-5.9997696E-2,-4.3441247E-2,1.522156E-2,-3.903465E-2,6.4643584E-2,9.281543E-2,5.206448E0,-7.247828E-1,3.7724134E-1,-1.048245E0,-5.7352796E-2,-4.0132064E-1,-7.247828E-1,1.1547105E0,8.92528E-1,-4.0132064E-1,1.2159902E0,2.00001E0,1.05137184E-1,-7.7858485E-2,4.6343144E-2,5.101282E0,5.287362E-2,5.104635E-1,6.384172E-1,2.3318273E-1,6.690268E-1,1.6285408E-1,5.6324065E-1,5.2251244E-1,1.5394523E0,3.529355E-1,5.690658E-1,-5.8305893E-2,-5.0601963E-2,3.7841368E-1,1.1123233E-1,-5.008231E-1,-5.920883E-2,-4.2699415E-2,-4.536265E-2,-5.008231E-1,-5.2938454E-2,1.5484579E-1,-5.925579E-3,5.920898E-1,6.0954183E-1,4.517982E-1,1.2908851E0,3.7016982E-1,4.3853068E-1,-1.776155E-1,5.410179E-3,1.9246766E-2,-1.5705018E-1,-1.0205086E-1,-1.3137241E-2,1.9246766E-2,4.8788962E-1,-3.599295E-2,3.4288427E-1,5.287362E-2,-1.7335965E-1,-1.1407017E-1,-3.8628258E-2,-6.0068797E-2,3.6338564E-2,6.466926E-2,3.6509523E-1,2.3271826E-1,-9.281689E-2,1.647293E-1,1.17466105E-2,5.287362E-2,-1.4763273E-1,2.6524827E-1,5.392879E-1,4.398599E-1,4.8476227E-2,2.6278777E-2,2.4253927E-1,4.425793E-1,5.332348E-2,1.1877126E-1,4.5985803E-1,3.8748913E-2,4.8754975E-1,4.1887838E-1,5.267601E-1,-5.6948442E-2,3.7830406E-1,5.9473497E-1,6.099516E-3,7.653331E-1,3.1457457E-1,-1.1272617E-1,1.9642913E-1,2.9941776E-1,2.6980205E-2,-8.234938E-2,1.8701792E-1,-1.0256768E-1,6.110634E-2,2.3588386E-1,-1.1787255E-1,-1.4160423E-2,-1.7174533E-1],"split_indices":[8,7,7,8,296,7,8,33,311,15,14,8,8,8,7,0,11,15,311,15,7,15,15,296,15,15,15,17,234,15,8,3,0,155,284,1,248,240,311,311,15,314,15,7,8,219,224,1,7,5,5,1,7,0,9,300,266,224,1,314,32,0,0,0,0,0,0,0,0,0,0,0,0,0,0,0,0,0,0,0,0,0,0,0,0,0,0,0,0,0,0,0,0,0,0,0,0,0,0,0,0,0,0,0,0,0,0,0,0,0,0,0,0,0,0,0,0],"split_type":[0,0,0,0,0,0,0,0,0,0,0,0,0,0,0,0,0,0,0,0,0,0,0,0,0,0,0,0,0,0,0,0,0,0,0,0,0,0,0,0,0,0,0,0,0,0,0,0,0,0,0,0,0,0,0,0,0,0,0,0,0,0,0,0,0,0,0,0,0,0,0,0,0,0,0,0,0,0,0,0,0,0,0,0,0,0,0,0,0,0,0,0,0,0,0,0,0,0,0,0,0,0,0,0,0,0,0,0,0,0,0,0,0,0,0,0,0],"sum_hessian":[1.9158238E4,1.421997E4,4.938269E3,4.1419463E3,1.0078023E4,3.9992495E3,9.3901935E2,3.6344912E3,5.0745523E2,9.755486E3,3.2253738E2,1.1560039E3,2.8432458E3,1.0020838E2,8.388109E2,1.8705564E0,3.6326206E3,4.0938464E2,9.80706E1,2.338997E3,7.416489E3,2.3702621E2,8.5511154E1,8.142265E2,3.4177737E2,2.5207085E3,3.2253738E2,8.01667E0,9.219171E1,1.7396175E2,6.648492E2,3.6315518E3,1.0688894E0,1.0902672E2,3.003579E2,4.008335E0,9.406226E1,3.3803625E2,2.0009609E3,6.912508E3,5.0398135E2,5.825447E1,1.7877174E2,5.8788915E0,7.9632256E1,6.0659473E1,7.53567E2,1.004756E2,2.4130177E2,4.9703357E2,2.0236748E3,1.6701396E2,1.555234E2,1.3361118E0,6.6805587E0,3.1265015E1,6.0926693E1,4.5695023E1,1.2826672E2,8.791615E1,5.7693304E2,3.6299482E3,1.6033341E0,2.9394457E0,1.0608727E2,2.5305956E2,4.7298355E1,2.9394457E0,1.0688894E0,9.299338E1,1.0688894E0,1.0688894E0,3.3696738E2,1.7666069E3,2.34354E2,6.1244688E3,7.880387E2,4.4171854E2,6.2262806E1,4.54278E0,5.3711693E1,9.833782E1,8.043393E1,1.0688894E0,4.8100023E0,2.6455011E1,5.3177246E1,5.558225E1,5.0772247E0,6.215592E2,1.3200784E2,1.5231673E1,8.524393E1,5.2108356E1,1.8919342E2,2.7069623E2,2.2633733E2,1.2134567E3,8.1021814E2,2.27139E1,1.4430006E2,4.2755575E0,1.5124785E2,4.2755575E0,2.4050012E0,2.4584455E1,6.6805587E0,3.7678352E1,2.3248344E1,1.3361117E1,3.2333904E1,1.1223338E2,1.603334E1,1.6033341E0,8.631282E1,3.7411127E0,5.7319196E2],"tree_param":{"num_deleted":"0","num_feature":"325","num_nodes":"117","size_leaf_vector":"1"}},{"base_weights":[-6.0387115E-6,-3.758468E-1,3.2337818E0,-4.146977E-1,1.479328E0,3.7804406E0,6.250642E-2,-4.4306105E-1,3.4300882E-1,1.0016605E0,3.3678951E0,2.3523784E0,4.950474E0,2.309926E0,-1.5140165E-1,-4.57635E-1,-1.6037017E-1,-1.02403685E-1,8.3896106E-1,3.1398015E0,7.11681E-1,4.9123387E0,2.4969501E0,1.3927293E0,3.7389722E0,5.192683E0,2.2774458E0,6.36518E-1,3.3922317E0,6.1627805E-1,-3.7329623E-1,-5.266066E-1,-4.3217888E-1,-2.8321326E-1,2.1628724E-1,1.1790286E0,-3.0385223E-1,9.590675E-2,1.2780337E0,5.1515573E-1,3.8880715E0,1.7330825E-1,1.3850247E0,4.2565998E-1,5.5366364E0,9.241509E-3,2.7120621E0,3.963602E0,8.488887E-1,2.6852653E0,4.9691753E0,4.3837123E0,5.798161E0,3.919136E0,1.2877394E0,-1.7828685E-1,5.741034E-1,3.198461E-1,1.2233887E0,1.8273547E0,-3.1050503E-1,-4.0423194E-1,2.861976E-1,6.64695E-2,-1.5814969E-1,-1.2988824E-1,2.679382E-1,-1.03605144E-1,7.715967E-2,1.3265897E-1,-7.109794E-2,9.432255E-2,8.510315E-1,3.338461E-1,-9.80428E-2,-2.6852686E-2,4.017626E-1,6.734414E-1,2.520673E-1,-1.07627235E-1,4.4145855E-1,1.9411494E-1,1.2601079E0,3.086201E-2,6.569388E-1,-1.5835676E-2,5.686551E-1,1.7793592E0,5.741034E-1,9.2973566E-1,2.908931E-1,4.476687E-1,1.4622229E0,1.6314986E-1,6.465708E-1,5.637946E-1,1.1256272E0,7.9649895E-1,1.6036937E0,6.6144866E-1,1.4772129E0,4.6505398E-1,1.7565616E0,1.3595034E0,3.1131512E-1,7.5271827E-1,-1.1386209E-3,-1.11257695E-1,6.64695E-2,1.3726816E-1,7.95146E-1,-1.4858997E-1,2.4693844E-1,-2.3619162E-2,-1.414551E-1],"categories":[],"categories_nodes":[],"categories_segments":[],"categories_sizes":[],"default_left":[0,0,0,0,0,0,0,0,0,0,1,0,0,1,0,0,1,0,0,0,0,0,0,0,0,0,0,0,0,0,1,0,0,1,0,0,0,0,0,0,0,1,0,0,1,0,0,0,0,0,0,0,0,0,1,0,0,0,0,1,1,0,0,0,0,0,0,0,0,0,0,0,0,0,0,0,0,0,0,0,0,0,0,0,0,0,0,0,0,0,0,0,0,0,0,0,0,0,0,0,0,0,0,0,0,0,0,0,0,0,0,0,0,0,0],"id":2,"left_children":[1,3,5,7,9,11,13,15,17,19,21,23,25,27,29,31,33,35,37,39,41,43,45,47,49,51,53,55,57,59,61,63,65,67,69,71,73,75,77,79,81,83,85,-1,87,-1,89,91,93,95,97,99,101,103,105,107,-1,-1,-1,109,111,113,-1,-1,-1,-1,-1,-1,-1,-1,-1,-1,-1,-1,-1,-1,-1,-1,-1,-1,-1,-1,-1,-1,-1,-1,-1,-1,-1,-1,-1,-1,-1,-1,-1,-1,-1,-1,-1,-1,-1,-1,-1,-1,-1,-1,-1,-1,-1,-1,-1,-1,-1,-1,-1],"loss_changes":[9.996767E3,5.3171704E2,1.4844541E3,1.552826E2,1.3317764E2,1.2088984E3,6.1374233E1,2.8594482E1,5.774617E1,7.355372E1,2.8267181E1,4.3506445E2,2.4754004E2,1.7932514E1,2.0133886E1,1.1389648E1,1.5917218E1,3.6087307E1,4.0206482E1,2.6091171E1,3.9248455E1,1.3586929E1,1.1216873E1,2.7225665E2,1.6131348E2,1.5412012E2,5.1926987E1,6.1561747E0,6.028946E0,3.0398296E1,4.1331253E0,8.6083984E-1,5.4002686E0,8.780632E0,8.792869E0,2.6352001E1,4.2794285E0,1.0953264E1,3.096669E1,4.143737E0,8.3940735E0,8.534528E0,3.5519173E1,0E0,8.053589E-2,0E0,1.0200729E1,6.956323E1,6.417771E1,5.721997E1,3.8940308E1,1.7869604E2,4.0972168E1,1.7711334E1,3.6866734E1,4.152913E-1,0E0,0E0,0E0,1.1941929E1,3.7408285E0,1.9316111E0,0E0,0E0,0E0,0E0,0E0,0E0,0E0,0E0,0E0,0E0,0E0,0E0,0E0,0E0,0E0,0E0,0E0,0E0,0E0,0E0,0E0,0E0,0E0,0E0,0E0,0E0,0E0,0E0,0E0,0E0,0E0,0E0,0E0,0E0,0E0,0E0,0E0,0E0,0E0,0E0,0E0,0E0,0E0,0E0,0E0,0E0,0E0,0E0,0E0,0E0,0E0,0E0,0E0],"parents":[2147483647,0,0,1,1,2,2,3,3,4,4,5,5,6,6,7,7,8,8,9,9,10,10,11,11,12,12,13,13,14,14,15,15,16,16,17,17,18,18,19,19,20,20,21,21,22,22,23,23,24,24,25,25,26,26,27,27,28,28,29,29,30,30,31,31,32,32,33,33,34,34,35,35,36,36,37,37,38,38,39,39,40,40,41,41,42,42,44,44,46,46,47,47,48,48,49,49,50,50,51,51,52,52,53,53,54,54,55,55,59,59,60,60,61,61],"right_children":[2,4,6,8,10,12,14,16,18,20,22,24,26,28,30,32,34,36,38,40,42,44,46,48,50,52,54,56,58,60,62,64,66,68,70,72,74,76,78,80,82,84,86,-1,88,-1,90,92,94,96,98,100,102,104,106,108,-1,-1,-1,110,112,114,-1,-1,-1,-1,-1,-1,-1,-1,-1,-1,-1,-1,-1,-1,-1,-1,-1,-1,-1,-1,-1,-1,-1,-1,-1,-1,-1,-1,-1,-1,-1,-1,-1,-1,-1,-1,-1,-1,-1,-1,-1,-1,-1,-1,-1,-1,-1,-1,-1,-1,-1,-1,-1],"split_conditions":[-2.6916511E-2,-3.9193798E-2,4.1824248E-1,-3.875924E-2,-2.8757942E-3,-2.0031536E-2,1.2731434E-1,-4.4542894E-2,1.2159902E0,-4.9611147E-2,1.2548026E-1,1.5394523E0,2.7478227E-1,4.43919E-1,-7.7858485E-2,-6.0513064E-2,1.767935E-1,-5.008231E-1,-5.5346277E-2,-4.2339597E-2,-3.655594E-2,6.963667E-2,-4.509372E-2,-4.8614296E-1,-6.260594E-3,3.4724683E-2,2.4560367E-1,1.315886E-1,-7.479331E-3,9.3614846E-1,6.185907E-1,1.6168347E-1,-3.4329243E-2,3.131088E-1,1.781323E-1,-4.8574276E-2,7.765206E-1,9.874695E-3,-3.5402194E-1,-8.899864E-2,8.042444E-1,5.5680394E-1,-4.0132064E-1,4.2565998E-1,5.836687E-1,9.241509E-3,1.5049607E-1,-4.4722952E-2,1.522156E-2,6.570508E-1,-5.1483728E-2,-7.7858485E-2,-1.048245E0,4.2803553E-1,8.264324E-2,1.175488E0,5.741034E-1,3.198461E-1,1.2233887E0,3.0944237E-1,2.4146937E-1,5.969732E-1,2.861976E-1,6.64695E-2,-1.5814969E-1,-1.2988824E-1,2.679382E-1,-1.03605144E-1,7.715967E-2,1.3265897E-1,-7.109794E-2,9.432255E-2,8.510315E-1,3.338461E-1,-9.80428E-2,-2.6852686E-2,4.017626E-1,6.734414E-1,2.520673E-1,-1.07627235E-1,4.4145855E-1,1.9411494E-1,1.2601079E0,3.086201E-2,6.569388E-1,-1.5835676E-2,5.686551E-1,1.7793592E0,5.741034E-1,9.2973566E-1,2.908931E-1,4.476687E-1,1.4622229E0,1.6314986E-1,6.465708E-1,5.637946E-1,1.1256272E0,7.9649895E-1,1.6036937E0,6.6144866E-1,1.4772129E0,4.6505398E-1,1.7565616E0,1.3595034E0,3.1131512E-1,7.5271827E-1,-1.1386209E-3,-1.11257695E-1,6.64695E-2,1.3726816E-1,7.95146E-1,-1.4858997E-1,2.4693844E-1,-2.3619162E-2,-1.414551E-1],"split_indices":[8,7,7,8,7,7,8,8,15,5,234,15,14,266,15,7,224,1,7,8,8,234,8,1,8,5,15,4,12,14,206,224,5,296,1,7,195,10,1,4,256,222,15,0,314,0,4,14,8,13,7,15,15,14,243,3,0,0,0,266,219,7,0,0,0,0,0,0,0,0,0,0,0,0,0,0,0,0,0,0,0,0,0,0,0,0,0,0,0,0,0,0,0,0,0,0,0,0,0,0,0,0,0,0,0,0,0,0,0,0,0,0,0,0,0],"split_type":[0,0,0,0,0,0,0,0,0,0,0,0,0,0,0,0,0,0,0,0,0,0,0,0,0,0,0,0,0,0,0,0,0,0,0,0,0,0,0,0,0,0,0,0,0,0,0,0,0,0,0,0,0,0,0,0,0,0,0,0,0,0,0,0,0,0,0,0,0,0,0,0,0,0,0,0,0,0,0,0,0,0,0,0,0,0,0,0,0,0,0,0,0,0,0,0,0,0,0,0,0,0,0,0,0,0,0,0,0,0,0,0,0,0,0],"sum_hessian":[8.223157E3,7.3677393E3,8.5541754E2,7.21737E3,1.5036905E2,7.294791E2,1.2593838E2,6.95735E3,2.6002032E2,1.2123576E2,2.9133286E1,3.298714E2,3.9960776E2,1.0093422E1,1.15844955E2,6.6156646E3,3.4168527E2,1.3740817E2,1.2261214E2,1.3304965E1,1.0793079E2,8.831744E0,2.0301542E1,1.9613354E2,1.3373784E2,3.6554245E2,3.40653E1,4.587919E0,5.5055027E0,2.5577648E1,9.026731E1,1.7781627E3,4.837502E3,2.5784106E2,8.384422E1,1.8007582E1,1.194006E2,4.599389E1,7.661825E1,3.3262413E0,9.9787245E0,6.0675232E1,4.7255566E1,1.8351676E0,6.996577E0,1.7204697E0,1.8581072E1,3.3147717E1,1.6298582E2,7.37508E1,5.998704E1,1.6000368E2,2.0553877E2,1.1699194E1,2.2366106E1,3.3262413E0,1.2616777E0,1.8351676E0,3.6703353E0,1.0666912E1,1.4910737E1,8.889093E1,1.3763757E0,1.0322818E0,1.7771305E3,4.8353228E3,2.1792617E0,2.3157521E2,2.6265837E1,5.5972614E1,2.7871609E1,1.2616777E1,5.390805E0,1.1469798E0,1.1825362E2,4.083248E1,5.161409E0,2.25955E1,5.4022747E1,2.0645635E0,1.2616777E0,1.1469798E0,8.831744E0,5.964295E1,1.0322818E0,1.2616777E1,3.463879E1,5.734899E0,1.2616777E0,1.4566643E1,4.014429E0,9.63463E0,2.3513086E1,1.3327905E2,2.9706776E1,4.358523E1,3.0165567E1,9.519932E0,5.046711E1,3.2803623E1,1.2720006E2,3.0968454E0,2.0244193E2,9.175838E0,2.5233555E0,1.1011005E1,1.13551E1,2.2939596E0,1.0322818E0,4.587919E0,6.078993E0,1.3304965E1,1.6057717E0,1.5598925E1,7.329201E1],"tree_param":{"num_deleted":"0","num_feature":"325","num_nodes":"115","size_leaf_vector":"1"}},{"base_weights":[-2.0534388E-5,-3.8082102E-1,1.4957417E1,-4.4761062E-1,4.429953E0,3.4940002E0,1.5939292E1,-4.8421207E-1,6.675768E-1,9.629127E0,2.6964927E0,-1.06236726E-1,5.2578025E0,1.6965145E1,5.5452857E0,-4.8661253E-1,5.9956354E-1,3.201176E-1,2.0625215E0,4.6305547E0,1.1097557E1,1.0877185E0,5.8636174E0,6.238743E0,2.1597336E-1,1.0153181E1,1.8843378E1,7.691003E0,2.506162E-1,-4.900273E-1,1.0841364E0,-1.716466E-1,1.1067433E0,3.3939784E0,8.6540145E-1,1.6816874E0,3.4201187E-1,3.7194705E0,1.1958413E0,3.9040965E-1,2.7324436E0,2.3138177E0,2.6317077E0,5.937466E-1,2.2056584E0,2.3404932E0,1.1554616E1,1.0113963E1,5.814956E0,3.5231486E-1,9.008431E0,-8.541068E-2,2.1597336E-1,-1.4866202E-1,-7.7655464E-2,8.791644E-1,-6.1171474E-3,1.943337E-1,-1.2564169E-1,1.7268723E-1,6.2099826E-1,-9.136568E-2,1.26096E0,6.220118E-1,1.1937968E-1,2.3152458E-2,8.043019E-1,4.755178E-2,9.913551E-1,-7.9754986E-2,8.735817E-1,1.0004808E0,5.1485483E-2,3.720207E0,1.0382928E0,8.265125E-1,3.5949492E0,3.0847688E0,7.843847E-1],"categories":[],"categories_nodes":[],"categories_segments":[],"categories_sizes":[],"default_left":[0,0,0,0,0,0,0,1,0,0,0,0,1,0,0,0,0,0,1,0,1,0,0,0,0,0,0,0,0,0,0,0,0,0,1,0,0,0,0,1,0,0,0,0,0,0,1,0,0,0,0,0,0,0,0,0,0,0,0,0,0,0,0,0,0,0,0,0,0,0,0,0,0,0,0,0,0,0,0],"id":3,"left_children":[1,3,5,7,9,11,13,15,17,19,21,-1,23,25,27,29,-1,31,33,35,37,39,41,43,-1,45,47,49,51,53,55,57,59,61,63,-1,-1,-1,-1,65,67,69,-1,-1,-1,71,73,75,-1,-1,77,-1,-1,-1,-1,-1,-1,-1,-1,-1,-1,-1,-1,-1,-1,-1,-1,-1,-1,-1,-1,-1,-1,-1,-1,-1,-1,-1,-1],"loss_changes":[1.770126E4,9.757496E2,8.1275E2,1.2236865E2,3.4887396E2,5.1871063E1,6.607207E2,1.8229553E1,4.559692E1,2.2089966E1,1.5962419E2,0E0,1.8279312E1,6.268047E2,8.719324E1,1.6051819E1,0E0,3.0204266E1,2.7104584E1,7.1861496E0,1.55252075E1,2.512021E1,9.066968E1,4.779312E0,0E0,1.4801611E2,3.4646484E1,3.7056213E1,1.0329769E0,3.552246E0,1.3495934E1,1.0115903E1,1.4146767E1,2.6962357E1,5.5371857E0,0E0,0E0,0E0,0E0,1.2135171E1,9.2410965E0,1.0337955E1,0E0,0E0,0E0,7.377344E0,4.8176758E1,3.4966003E1,0E0,0E0,9.494263E0,0E0,0E0,0E0,0E0,0E0,0E0,0E0,0E0,0E0,0E0,0E0,0E0,0E0,0E0,0E0,0E0,0E0,0E0,0E0,0E0,0E0,0E0,0E0,0E0,0E0,0E0,0E0,0E0],"parents":[2147483647,0,0,1,1,2,2,3,3,4,4,5,5,6,6,7,7,8,8,9,9,10,10,12,12,13,13,14,14,15,15,17,17,18,18,19,19,20,20,21,21,22,22,23,23,25,25,26,26,27,27,28,28,29,29,30,30,31,31,32,32,33,33,34,34,39,39,40,40,41,41,45,45,46,46,47,47,50,50],"right_children":[2,4,6,8,10,12,14,16,18,20,22,-1,24,26,28,30,-1,32,34,36,38,40,42,44,-1,46,48,50,52,54,56,58,60,62,64,-1,-1,-1,-1,66,68,70,-1,-1,-1,72,74,76,-1,-1,78,-1,-1,-1,-1,-1,-1,-1,-1,-1,-1,-1,-1,-1,-1,-1,-1,-1,-1,-1,-1,-1,-1,-1,-1,-1,-1,-1,-1],"split_conditions":[1.7470117E-1,9.233698E-2,4.6343144E-2,-4.7693713E-4,-4.4944268E-1,-7.7858485E-2,4.4863133E0,9.441736E-1,4.979534E-2,1.7289726E-2,1.5394523E0,-1.06236726E-1,6.454946E-1,2.993562E-1,1.19667225E1,1.07900284E-1,5.9956354E-1,1.5394523E0,8.523257E-2,4.6401194E-1,2.1393394E-1,1.0627887E-1,4.979534E-2,-2.132025E-2,2.1597336E-1,-4.0132064E-1,-7.247828E-1,9.519141E-1,8.414029E-2,-2.0031206E-2,1.2408433E-1,-3.899882E-1,3.6978328E-3,-7.7858485E-2,9.443613E-2,1.6816874E0,3.4201187E-1,3.7194705E0,1.1958413E0,1.8124239E-1,4.9469823E-1,7.4896836E-1,2.6317077E0,5.937466E-1,2.2056584E0,1.252861E-1,2.190178E-1,5.454285E-1,5.814956E0,3.5231486E-1,5.7211447E0,-8.541068E-2,2.1597336E-1,-1.4866202E-1,-7.7655464E-2,8.791644E-1,-6.1171474E-3,1.943337E-1,-1.2564169E-1,1.7268723E-1,6.2099826E-1,-9.136568E-2,1.26096E0,6.220118E-1,1.1937968E-1,2.3152458E-2,8.043019E-1,4.755178E-2,9.913551E-1,-7.9754986E-2,8.735817E-1,1.0004808E0,5.1485483E-2,3.720207E0,1.0382928E0,8.265125E-1,3.5949492E0,3.0847688E0,7.843847E-1],"split_indices":[7,8,8,8,1,15,14,182,7,7,15,0,284,7,5,5,0,15,230,300,284,7,7,12,0,15,15,13,10,8,234,1,9,15,254,0,0,0,0,240,283,314,0,0,0,4,219,14,0,0,3,0,0,0,0,0,0,0,0,0,0,0,0,0,0,0,0,0,0,0,0,0,0,0,0,0,0,0,0],"split_type":[0,0,0,0,0,0,0,0,0,0,0,0,0,0,0,0,0,0,0,0,0,0,0,0,0,0,0,0,0,0,0,0,0,0,0,0,0,0,0,0,0,0,0,0,0,0,0,0,0,0,0,0,0,0,0,0,0,0,0,0,0,0,0,0,0,0,0,0,0,0,0,0,0,0,0,0,0,0,0],"sum_hessian":[3.1057744E3,3.0296182E3,7.615633E1,2.9890273E3,4.0590714E1,6.3680205E0,6.978831E1,2.89459E3,9.443731E1,9.010532E0,3.1580183E1,2.252633E0,4.1153874E0,6.2943764E1,6.8445387E0,2.8925974E3,1.9927138E0,7.658952E1,1.7847784E1,2.9890707E0,6.0214615E0,2.1833212E1,9.74697E0,3.0757105E0,1.0396768E0,1.4988673E1,4.7955093E1,4.548586E0,2.2959528E0,2.887009E3,5.5882626E0,4.7608532E1,2.898099E1,7.5809765E0,1.02668085E1,1.8627542E0,1.1263165E0,4.461946E0,1.5595152E0,1.620163E1,5.6315827E0,5.198384E0,4.548586E0,1.2129562E0,1.8627542E0,2.6858318E0,1.2302842E1,3.942108E0,4.4012985E1,1.0829966E0,3.4655893E0,1.2562761E0,1.0396768E0,2.8186504E3,6.835875E1,1.4728755E0,4.1153874E0,1.0656687E1,3.6951847E1,1.9710539E1,9.270452E0,1.4728755E0,6.108101E0,1.906074E0,8.360734E0,1.5161953E1,1.0396768E0,1.2562761E0,4.3753066E0,1.0829966E0,4.1153874E0,1.4728755E0,1.2129562E0,1.0656687E1,1.6461549E0,1.299596E0,2.6425118E0,2.3825927E0,1.0829966E0],"tree_param":{"num_deleted":"0","num_feature":"325","num_nodes":"79","size_leaf_vector":"1"}},{"base_weights":[-2.3773605E-4,-4.3541265E-1,1.628619E1,-4.8901594E-1,1.8518174E0,-1.497858E-1,1.6542712E-2,-1.1844138E-2,1.3494599E0,3.440407E-1,-1.23659365E-1,-1.137247E-1,2.2404397E-1],"categories":[],"categories_nodes":[],"categories_segments":[],"categories_sizes":[],"default_left":[0,0,0,0,0,0,0,0,0,0,0,0,0],"id":4,"left_children":[1,3,-1,5,7,-1,9,11,-1,-1,-1,-1,-1],"loss_changes":[7.0760938E3,3.7335842E1,0E0,1.5198212E0,3.464204E1,0E0,3.750558E0,1.7074976E0,0E0,0E0,0E0,0E0,0E0],"parents":[2147483647,0,0,1,1,3,3,4,4,6,6,7,7],"right_children":[2,4,-1,6,8,-1,10,12,-1,-1,-1,-1,-1],"split_conditions":[2.226713E0,1.7470117E-1,1.628619E1,5.5431746E-2,1.5394523E0,-1.497858E-1,1.3949388E-1,1.7271318E-1,1.3494599E0,3.440407E-1,-1.23659365E-1,-1.137247E-1,2.2404397E-1],"split_indices":[14,7,0,8,15,0,268,262,0,0,0,0,0],"split_type":[0,0,0,0,0,0,0,0,0,0,0,0,0],"sum_hessian":[2.9752206E2,2.9614014E2,1.3819126E0,2.9012695E2,6.0131874E0,2.8436276E2,5.764194E0,4.112539E0,1.9006486E0,1.1246196E0,4.6395745E0,3.1082659E0,1.0042728E0],"tree_param":{"num_deleted":"0","num_feature":"325","num_nodes":"13","size_leaf_vector":"1"}},{"base_weights":[6.2539205E-2,3.2826427E-1,-6.465576E-1,5.80732E-1,2.4175659E-1,-3.7988734E-1,-8.092951E-1,5.7555246E-1,4.250646E0,2.9180673E-1,-6.9500897E-3,-1.6046435E-2,-4.8202723E-1,2.1972573E-1,-8.202358E-1,6.0736287E-1,3.649336E-1,5.657268E0,1.1782145E-1,4.2607573E-1,2.535851E-1,-5.249354E-1,7.426912E-2,2.0141529E-1,-3.4066534E-1,-2.116851E-1,-6.516215E-1,4.117066E-1,-4.4343045E-1,-6.5426177E-1,-8.484101E-1,6.0806364E-1,-2.1245748E-1,4.102703E-1,1.8740274E-1,2.6788428E0,1.8946022E0,6.0352343E-1,3.9769772E-1,1.7454347E-1,3.7546375E-1,3.9029738E-1,-5.765666E-1,1.5818873E-1,-5.002492E-1,-7.629663E-2,2.6757324E-1,-1.6779213E-1,-6.461588E-1,-3.4931213E-1,1.108909E-1,-5.383016E-1,-8.742488E-1,-1.06078394E-1,5.160997E-1,2.1416637E-1,-9.4350183E-1,-3.9937058E-1,-8.317682E-1,-8.5046786E-1,4.6170175E-1,-8.797232E-2,1.8262538E-1,1.3325328E-1,7.2930776E-2,1.7436456E-2,1.0149326E-1,1.0033141E-1,7.7603376E-1,-5.094659E-2,1.8189462E-1,1.2797289E-1,7.774879E-2,-6.307911E-2,6.2202446E-2,1.2777776E-1,5.289557E-2,1.6352597E-1,-1.9073649E-1,-1.2501553E-1,-2.544016E-1,6.154359E-2,-1.6894394E-1,-1.1992051E-1,-2.8710124E-1,-9.772131E-2,3.4262996E-2,1.6333245E-2,1.0479457E-1,-8.221607E-3,-2.2193444E-1,-2.10554E-1,1.2748078E-1,-9.577792E-3,-1.3921355E-1,1.6779706E-1,7.694779E-3,-1.3806975E-1,-2.9841155E-1,1.6835395E-1,-2.6987785E-1,-1.2768683E-1,1.3682504E-1,-8.067E-2,1.8013062E-1,1.4008541E-1,-3.4044832E-2,-1.4995894E-2,-3.44655E-1,-2.6366886E-1,-8.9147955E-2,-2.6187193E-1,-8.636207E-2,-2.1524923E-1,-2.5920263E-1,7.8374463E-1,-1.4516045E-1],"categories":[],"categories_nodes":[],"categories_segments":[],"categories_sizes":[],"default_left":[0,0,0,0,0,0,0,0,1,0,0,0,0,0,0,0,1,0,0,0,0,0,0,0,0,0,0,0,0,0,0,0,0,1,0,0,0,0,1,0,0,1,0,0,0,0,0,1,0,0,0,1,0,0,1,0,0,0,1,0,0,0,0,0,0,0,0,0,0,0,0,0,0,0,0,0,0,0,0,0,0,0,0,0,0,0,0,0,0,0,0,0,0,0,0,0,0,0,0,0,0,0,0,0,0,0,0,0,0,0,0,0,0,0,0,0,0],"id":5,"left_children":[1,3,5,7,9,11,13,15,17,19,21,23,25,27,29,31,33,35,-1,37,39,41,43,45,47,49,51,53,55,57,59,61,-1,63,65,-1,67,69,71,73,75,77,79,81,83,85,87,89,91,93,95,97,99,101,103,105,107,109,111,113,115,-1,-1,-1,-1,-1,-1,-1,-1,-1,-1,-1,-1,-1,-1,-1,-1,-1,-1,-1,-1,-1,-1,-1,-1,-1,-1,-1,-1,-1,-1,-1,-1,-1,-1,-1,-1,-1,-1,-1,-1,-1,-1,-1,-1,-1,-1,-1,-1,-1,-1,-1,-1,-1,-1,-1,-1],"loss_changes":[4.7441235E3,3.9985498E2,2.9753735E2,8.638391E1,1.6981836E2,9.672345E1,4.815454E1,3.1051758E1,3.2669235E1,5.8174988E1,9.6230354E1,4.0417362E1,9.3041626E1,5.990428E0,1.9162842E1,4.1678467E0,4.8729477E0,4.017514E1,0E0,1.2424805E1,8.512134E1,1.4875816E1,9.5416245E1,6.3206463E0,1.2020586E1,3.4886345E1,3.1023987E1,1.9950237E0,3.7282693E0,2.7551453E1,1.01015625E1,2.6898193E0,0E0,2.6640167E0,2.4569674E0,0E0,2.8348885E0,8.475113E-1,8.575867E0,6.776634E1,3.487491E1,3.0708628E0,1.2398079E1,5.8582195E1,1.1199032E1,3.2092392E0,4.8095264E0,1.1865626E1,5.227833E0,2.0029274E1,8.987724E0,2.9112244E1,1.5766083E1,1.4250401E0,2.1504335E0,5.041332E-1,1.094111E0,1.2233055E1,7.856598E0,5.8549805E0,1.4068192E1,0E0,0E0,0E0,0E0,0E0,0E0,0E0,0E0,0E0,0E0,0E0,0E0,0E0,0E0,0E0,0E0,0E0,0E0,0E0,0E0,0E0,0E0,0E0,0E0,0E0,0E0,0E0,0E0,0E0,0E0,0E0,0E0,0E0,0E0,0E0,0E0,0E0,0E0,0E0,0E0,0E0,0E0,0E0,0E0,0E0,0E0,0E0,0E0,0E0,0E0,0E0,0E0,0E0,0E0,0E0,0E0],"parents":[2147483647,0,0,1,1,2,2,3,3,4,4,5,5,6,6,7,7,8,8,9,9,10,10,11,11,12,12,13,13,14,14,15,15,16,16,17,17,19,19,20,20,21,21,22,22,23,23,24,24,25,25,26,26,27,27,28,28,29,29,30,30,31,31,33,33,34,34,36,36,37,37,38,38,39,39,40,40,41,41,42,42,43,43,44,44,45,45,46,46,47,47,48,48,49,49,50,50,51,51,52,52,53,53,54,54,55,55,56,56,57,57,58,58,59,59,60,60],"right_children":[2,4,6,8,10,12,14,16,18,20,22,24,26,28,30,32,34,36,-1,38,40,42,44,46,48,50,52,54,56,58,60,62,-1,64,66,-1,68,70,72,74,76,78,80,82,84,86,88,90,92,94,96,98,100,102,104,106,108,110,112,114,116,-1,-1,-1,-1,-1,-1,-1,-1,-1,-1,-1,-1,-1,-1,-1,-1,-1,-1,-1,-1,-1,-1,-1,-1,-1,-1,-1,-1,-1,-1,-1,-1,-1,-1,-1,-1,-1,-1,-1,-1,-1,-1,-1,-1,-1,-1,-1,-1,-1,-1,-1,-1,-1,-1,-1,-1],"split_conditions":[-4.674619E-2,-6.0513064E-2,-3.7106764E-2,1.3570639E0,-5.855671E-2,-7.7858485E-2,-1.048245E0,-5.252985E-2,2.57335E-1,-7.247828E-1,-4.641228E-1,-4.9294095E-2,-5.705182E-2,9.663112E-3,-5.258731E-2,5.101282E0,2.8645608E-1,1.0256299E0,1.1782145E-1,-1.048245E0,5.690658E-1,-4.0132064E-1,1.5394523E0,-2.8062135E-1,-3.3568315E-2,4.9681272E-2,1.5394523E0,-1.9545773E-2,5.433544E-1,1.2159902E0,2.3793876E0,7.616615E-1,-2.1245748E-1,6.384172E-1,5.441914E-1,2.6788428E0,-7.247828E-1,3.3630934E-1,2.5784105E-1,-5.008231E-1,-5.0051138E-2,3.8825163E-1,-5.686182E-2,-4.3523747E-2,-5.318927E-2,-1.205111E-1,8.145121E-1,5.1767313E-1,1.664494E0,-5.925899E-2,6.3509536E-1,2.1760327E-1,3.49363E-1,2.1378754E-1,4.4601895E-2,3.3591777E-1,2.603228E-1,-5.008231E-1,3.2330915E-1,-7.247828E-1,9.5085435E-2,-8.797232E-2,1.8262538E-1,1.3325328E-1,7.2930776E-2,1.7436456E-2,1.0149326E-1,1.0033141E-1,7.7603376E-1,-5.094659E-2,1.8189462E-1,1.2797289E-1,7.774879E-2,-6.307911E-2,6.2202446E-2,1.2777776E-1,5.289557E-2,1.6352597E-1,-1.9073649E-1,-1.2501553E-1,-2.544016E-1,6.154359E-2,-1.6894394E-1,-1.1992051E-1,-2.8710124E-1,-9.772131E-2,3.4262996E-2,1.6333245E-2,1.0479457E-1,-8.221607E-3,-2.2193444E-1,-2.10554E-1,1.2748078E-1,-9.577792E-3,-1.3921355E-1,1.6779706E-1,7.694779E-3,-1.3806975E-1,-2.9841155E-1,1.6835395E-1,-2.6987785E-1,-1.2768683E-1,1.3682504E-1,-8.067E-2,1.8013062E-1,1.4008541E-1,-3.4044832E-2,-1.4995894E-2,-3.44655E-1,-2.6366886E-1,-8.9147955E-2,-2.6187193E-1,-8.636207E-2,-2.1524923E-1,-2.5920263E-1,7.8374463E-1,-1.4516045E-1],"split_indices":[8,7,8,14,7,15,15,8,287,15,1,5,7,10,7,3,311,13,0,15,15,15,15,1,5,1,15,12,235,15,5,33,0,284,284,0,15,258,311,1,8,230,14,5,7,4,311,317,1,7,281,296,61,262,262,266,300,1,281,15,12,0,0,0,0,0,0,0,0,0,0,0,0,0,0,0,0,0,0,0,0,0,0,0,0,0,0,0,0,0,0,0,0,0,0,0,0,0,0,0,0,0,0,0,0,0,0,0,0,0,0,0,0,0,0,0,0],"split_type":[0,0,0,0,0,0,0,0,0,0,0,0,0,0,0,0,0,0,0,0,0,0,0,0,0,0,0,0,0,0,0,0,0,0,0,0,0,0,0,0,0,0,0,0,0,0,0,0,0,0,0,0,0,0,0,0,0,0,0,0,0,0,0,0,0,0,0,0,0,0,0,0,0,0,0,0,0,0,0,0,0,0,0,0,0,0,0,0,0,0,0,0,0,0,0,0,0,0,0,0,0,0,0,0,0,0,0,0,0,0,0,0,0,0,0,0,0],"sum_hessian":[2.5175684E4,1.8313477E4,6.8622065E3,4.672203E3,1.3641273E4,2.6019116E3,4.260295E3,4.6667734E3,5.429615E0,1.1355834E4,2.2854402E3,5.705753E2,2.0313363E3,4.461868E1,4.2156763E3,4.052786E3,6.1398755E2,3.637095E0,1.79252E0,2.5140537E3,8.84178E3,3.090396E2,1.9764006E3,3.419099E2,2.286654E2,7.839413E2,1.247395E3,3.4895695E1,9.722983E0,6.152837E2,3.6003926E3,4.0511658E3,1.6202211E0,4.8804324E2,1.2594428E2,1.2108767E0,2.4262183E0,3.4382855E2,2.1702253E3,5.364917E3,3.4768625E3,1.6152647E1,2.9288696E2,1.7251356E3,2.5126506E2,6.575138E1,2.761585E2,1.4701918E2,8.1646225E1,5.494399E2,2.3450137E2,8.288953E2,4.184997E2,5.8523197E0,2.9043375E1,4.446948E0,5.276035E0,2.5391835E2,3.6136536E2,3.5950967E3,5.2959194E0,2.7639663E0,4.0484016E3,4.0436688E2,8.367636E1,6.857878E1,5.7365498E1,1.201411E0,1.2248074E0,1.0216337E0,3.4280692E2,1.7941447E3,3.7608057E2,4.209267E2,4.9439907E3,2.7730513E3,7.038113E2,1.4442681E1,1.7099662E0,1.8592963E2,1.0695733E2,1.6203704E3,1.0476522E2,2.0748152E2,4.3783543E1,2.8164352E1,3.758703E1,7.7016495E1,1.9914203E2,1.1888776E2,2.8131424E1,7.793881E1,3.7074163E0,1.4622252E2,4.0321738E2,3.6567627E1,1.9793375E2,7.0953564E2,1.1935966E2,6.8940406E0,4.1160565E2,3.8862038E0,1.9661158E0,2.6052415E0,2.6438133E1,2.2702603E0,2.1766877E0,1.2183117E0,4.0577235E0,4.3278187E1,2.1064017E2,3.3539255E2,2.5972836E1,3.3725464E2,3.257842E3,1.0789316E0,4.216988E0],"tree_param":{"num_deleted":"0","num_feature":"325","num_nodes":"117","size_leaf_vector":"1"}},{"base_weights":[1.6722361E-3,-2.6084134E-1,4.1819876E-1,-5.187861E-1,-1.5729578E-1,4.7409502E-1,-2.621144E-1,-5.6250954E-1,-2.3757122E-1,-3.28972E-1,-1.0514155E-1,1.076983E-1,5.7223386E-1,3.393109E-1,-3.4572104E-1,6.59977E-2,-5.6317747E-1,-2.959682E-1,-1.8571265E-2,-5.4196733E-1,-2.9534757E-1,-1.8660026E-2,-2.5666857E-1,2.1036041E-1,-1.3792098E-1,2.3535253E-1,6.090992E-1,-1.3778701E-1,5.3449655E-1,-1.5778053E-1,-4.7504246E-1,-5.6352985E-1,3.8955383E-2,-3.4066674E-1,-8.086344E-2,-2.7011126E-1,1.1761753E-1,5.8367003E-2,-5.456744E-1,-3.355822E-1,-1.0556574E-1,3.771678E-1,-6.2294837E-2,-3.1578368E-1,2.3538063E-1,9.187464E-2,4.695056E-1,-1.7360345E-1,9.6050775E-1,-1.5604883E-1,6.399638E-1,6.5678847E-1,2.522184E-1,-4.9614656E-1,5.854928E-1,8.5355127E-1,1.518529E-1,4.8918372E-1,-2.504802E-1,2.2644833E-1,-4.8755276E-1,-1.6915813E-1,3.3270564E-2,-4.222893E-2,-1.1709451E-1,2.301366E-1,-3.852621E-2,2.2958995E-1,-1.0425529E-1,-1.272229E-1,6.415948E-2,-1.6482843E-1,-1.8024296E-2,-1.01689376E-1,4.2579845E-1,2.0488837E-1,-3.8602643E-2,1.3058545E-1,-7.4073285E-2,-3.148244E-2,6.3616246E-2,-1.077473E-1,-5.3952E-3,5.4098986E-2,3.9296743E-1,1.4722803E-2,1.6673325E-1,1.7945306E-1,1.6317591E-2,-6.288789E-2,1.17191635E-1,-6.766544E-2,4.0835887E-1,2.565773E-1,-5.7669464E-2,-7.4926E-2,2.2541548E-1,1.5874442E-1,2.2269742E-1,-1.4910427E-1,1.0631898E-1,3.304003E-2,-1.6832887E-1,-7.314216E-2,4.2070392E-1,3.0394226E-1,-7.821578E-2,1.9970705E-1,-7.2785445E-2,6.5469995E-2,3.926426E-1,-3.422736E-2,-1.3527916E-1,-7.183201E-2,3.557109E-1,-1.00048445E-1,-1.5334277E-1],"categories":[],"categories_nodes":[],"categories_segments":[],"categories_sizes":[],"default_left":[0,0,0,0,0,0,0,0,1,0,0,0,0,1,0,0,0,1,0,0,1,0,0,0,1,0,0,0,0,0,0,0,0,0,0,0,0,0,0,0,0,1,1,1,0,1,1,1,0,0,0,0,0,0,0,1,1,0,0,0,0,0,0,0,0,0,0,0,0,0,0,0,0,0,0,0,0,0,0,0,0,0,0,0,0,0,0,0,0,0,0,0,0,0,0,0,0,0,0,0,0,0,0,0,0,0,0,0,0,0,0,0,0,0,0,0,0],"id":6,"left_children":[1,3,5,7,9,11,13,15,17,19,21,23,25,27,29,-1,31,33,35,37,39,41,43,45,47,49,51,53,55,57,59,61,-1,63,65,67,69,-1,71,73,75,77,79,81,83,85,87,89,91,93,95,97,99,101,103,105,107,109,111,113,115,-1,-1,-1,-1,-1,-1,-1,-1,-1,-1,-1,-1,-1,-1,-1,-1,-1,-1,-1,-1,-1,-1,-1,-1,-1,-1,-1,-1,-1,-1,-1,-1,-1,-1,-1,-1,-1,-1,-1,-1,-1,-1,-1,-1,-1,-1,-1,-1,-1,-1,-1,-1,-1,-1,-1,-1],"loss_changes":[2.0344397E3,3.0474707E2,2.736499E2,4.0057312E1,7.289502E1,2.3895581E2,2.7610302E1,1.6020508E0,5.641651E0,1.3429062E1,8.188143E1,3.5470573E1,6.496643E1,6.3348384E0,1.1604141E1,0E0,7.6330566E-1,3.3236275E0,3.252752E0,8.092346E-1,1.2494431E1,6.87544E1,6.611633E1,3.0404613E1,1.6428963E1,8.225198E1,8.024927E1,5.5562334E0,5.720681E0,1.1959394E1,2.6041565E0,6.921997E-1,0E0,2.8060455E0,2.5696805E0,2.9371982E0,3.3072693E0,0E0,4.3447876E-1,8.514801E0,5.344974E0,1.4443291E1,4.19681E1,2.6180511E1,1.4202373E1,1.3508124E1,1.6573006E1,8.267046E0,6.5836744E0,9.842338E0,2.5493095E1,4.5105347E1,4.2938118E1,6.180546E-1,5.2122316E0,4.8724957E0,4.824519E0,5.2827973E0,4.686288E0,2.814156E0,8.452759E-1,0E0,0E0,0E0,0E0,0E0,0E0,0E0,0E0,0E0,0E0,0E0,0E0,0E0,0E0,0E0,0E0,0E0,0E0,0E0,0E0,0E0,0E0,0E0,0E0,0E0,0E0,0E0,0E0,0E0,0E0,0E0,0E0,0E0,0E0,0E0,0E0,0E0,0E0,0E0,0E0,0E0,0E0,0E0,0E0,0E0,0E0,0E0,0E0,0E0,0E0,0E0,0E0,0E0,0E0,0E0,0E0],"parents":[2147483647,0,0,1,1,2,2,3,3,4,4,5,5,6,6,7,7,8,8,9,9,10,10,11,11,12,12,13,13,14,14,16,16,17,17,18,18,19,19,20,20,21,21,22,22,23,23,24,24,25,25,26,26,27,27,28,28,29,29,30,30,31,31,33,33,34,34,35,35,36,36,38,38,39,39,40,40,41,41,42,42,43,43,44,44,45,45,46,46,47,47,48,48,49,49,50,50,51,51,52,52,53,53,54,54,55,55,56,56,57,57,58,58,59,59,60,60],"right_children":[2,4,6,8,10,12,14,16,18,20,22,24,26,28,30,-1,32,34,36,38,40,42,44,46,48,50,52,54,56,58,60,62,-1,64,66,68,70,-1,72,74,76,78,80,82,84,86,88,90,92,94,96,98,100,102,104,106,108,110,112,114,116,-1,-1,-1,-1,-1,-1,-1,-1,-1,-1,-1,-1,-1,-1,-1,-1,-1,-1,-1,-1,-1,-1,-1,-1,-1,-1,-1,-1,-1,-1,-1,-1,-1,-1,-1,-1,-1,-1,-1,-1,-1,-1,-1,-1,-1,-1,-1,-1,-1,-1,-1,-1,-1,-1,-1,-1],"split_conditions":[-5.0051138E-2,-6.0513064E-2,2.6519716E-2,-5.252985E-2,-7.247828E-1,-5.8456384E-2,-1.672626E-2,7.616615E-1,2.8645608E-1,-1.048245E0,5.690658E-1,1.2980981E-2,-7.247828E-1,1.2548026E-1,8.215047E-2,6.59977E-2,3.8036873E0,6.384172E-1,-7.247828E-1,1.6285408E-1,2.5784105E-1,-4.641228E-1,-5.855671E-2,-4.674619E-2,1E0,-4.219213E-2,3.103422E-3,9.304882E-1,5.5271007E-2,-7.247828E-1,7.063077E-1,5.101282E0,3.8955383E-2,-4.4944268E-1,2.97005E-1,5.4813313E-1,4.1241613E-1,5.8367003E-2,-5.29719E-2,-3.610473E-2,1.9190355E-1,5.300363E-1,5.2251244E-1,5.110923E-1,-5.103226E-2,3.7514505E-1,2.901511E-1,3.7514505E-1,2.531251E-1,7.913042E-2,-1.048245E0,-5.5192728E-2,1.1547105E0,-3.765759E-2,5.737784E-1,6.2640464E-1,2.8227147E-1,2.031497E0,1.2159902E0,4.8946614E0,1.522156E-2,-1.6915813E-1,3.3270564E-2,-4.222893E-2,-1.1709451E-1,2.301366E-1,-3.852621E-2,2.2958995E-1,-1.0425529E-1,-1.272229E-1,6.415948E-2,-1.6482843E-1,-1.8024296E-2,-1.01689376E-1,4.2579845E-1,2.0488837E-1,-3.8602643E-2,1.3058545E-1,-7.4073285E-2,-3.148244E-2,6.3616246E-2,-1.077473E-1,-5.3952E-3,5.4098986E-2,3.9296743E-1,1.4722803E-2,1.6673325E-1,1.7945306E-1,1.6317591E-2,-6.288789E-2,1.17191635E-1,-6.766544E-2,4.0835887E-1,2.565773E-1,-5.7669464E-2,-7.4926E-2,2.2541548E-1,1.5874442E-1,2.2269742E-1,-1.4910427E-1,1.0631898E-1,3.304003E-2,-1.6832887E-1,-7.314216E-2,4.2070392E-1,3.0394226E-1,-7.821578E-2,1.9970705E-1,-7.2785445E-2,6.5469995E-2,3.926426E-1,-3.422736E-2,-1.3527916E-1,-7.183201E-2,3.557109E-1,-1.00048445E-1,-1.5334277E-1],"split_indices":[8,7,7,8,15,7,8,33,311,15,15,1,15,234,7,0,15,284,15,240,311,1,7,8,317,5,8,1,14,15,32,3,0,1,266,281,230,0,5,5,300,234,311,317,7,224,314,224,219,254,15,14,296,8,300,283,300,1,15,3,8,0,0,0,0,0,0,0,0,0,0,0,0,0,0,0,0,0,0,0,0,0,0,0,0,0,0,0,0,0,0,0,0,0,0,0,0,0,0,0,0,0,0,0,0,0,0,0,0,0,0,0,0,0,0,0,0],"split_type":[0,0,0,0,0,0,0,0,0,0,0,0,0,0,0,0,0,0,0,0,0,0,0,0,0,0,0,0,0,0,0,0,0,0,0,0,0,0,0,0,0,0,0,0,0,0,0,0,0,0,0,0,0,0,0,0,0,0,0,0,0,0,0,0,0,0,0,0,0,0,0,0,0,0,0,0,0,0,0,0,0,0,0,0,0,0,0,0,0,0,0,0,0,0,0,0,0,0,0,0,0,0,0,0,0,0,0,0,0,0,0,0,0,0,0,0,0],"sum_hessian":[1.8603889E4,1.1411945E4,7.1919424E3,3.2676982E3,8.144247E3,6.646179E3,5.4576355E2,2.827133E3,4.405652E2,1.8964355E3,6.2478115E3,1.4045303E3,5.241649E3,6.623596E1,4.795276E2,2.1310897E0,2.825002E3,3.4754092E2,9.3024254E1,2.565011E2,1.6399344E3,3.9783547E3,2.2694568E3,9.9062134E2,4.1390894E2,5.177504E2,4.7238984E3,1.9315819E1,4.6920143E1,1.963686E2,2.8315897E2,2.8237532E3,1.2488813E0,2.8726404E2,6.0276897E1,3.232914E1,6.0695114E1,1.0267338E0,2.5547438E2,1.3524423E3,2.8749222E2,3.9425705E2,3.584098E3,2.026366E3,2.430907E2,6.807328E2,3.0988855E2,4.017016E2,1.2207331E1,2.6348355E2,2.542669E2,4.1663213E3,5.5757684E2,1.3126256E1,6.189563E0,2.491496E1,2.2005182E1,2.4074211E1,1.722944E2,4.661714E0,2.7849725E2,2.8225337E3,1.2193508E0,5.79141E1,2.2934993E2,2.397473E0,5.7879425E1,1.6306244E0,3.0698517E1,8.6433E0,5.2051815E1,2.5338422E2,2.090162E0,1.3506459E3,1.7963498E0,7.372779E0,2.8011945E2,3.609466E2,3.331045E1,3.10245E3,4.816479E2,1.7685709E3,2.5779507E2,2.3235426E2,1.073644E1,6.2424695E2,5.6485832E1,2.3622559E2,7.3662964E1,3.7818564E2,2.351598E1,3.1929922E0,9.0143385E0,8.319391E0,2.5516415E2,2.8160309E1,2.261066E2,1.6746028E3,2.4917188E3,6.6451294E1,4.9112552E2,1.2028106E0,1.1923446E1,3.4194942E0,2.7700684E0,2.1872997E1,3.0419643E0,9.258077E0,1.2747106E1,1.90447E1,5.0295095E0,1.03464775E2,6.882962E1,3.6428525E0,1.0188618E0,3.8991634E1,2.3950563E2],"tree_param":{"num_deleted":"0","num_feature":"325","num_nodes":"117","size_leaf_vector":"1"}},{"base_weights":[-5.7080265E-2,-3.990883E-1,7.898296E-1,-4.3359557E-1,-6.776096E-2,7.555469E-1,2.425915E0,-5.167544E-1,-4.0576482E-1,-1.5621358E-1,5.020927E-1,4.3623015E-1,8.7788856E-1,1.4636605E0,3.006623E0,7.0012E-2,-5.17476E-1,-4.09861E-1,-4.095876E-2,-2.4252757E-1,1.2636824E-1,1.3356863E0,3.7750965E-1,6.856775E-1,6.046279E-2,4.981969E-1,9.1425675E-1,3.9510694E-1,1.660076E0,3.4183316E0,2.0599693E-1,-5.1819915E-1,6.3860334E-2,-3.828351E-1,-4.5558885E-1,-1.8053773E-1,7.009324E-1,-2.6662847E-1,9.7759944E-1,2.5182182E-1,-1.9323507E-1,1.6960397E0,-1.1485601E-2,2.6369017E-1,1.175198E0,1.030191E0,4.3992868E-1,-1.582808E-1,3.5236034E-1,1.0068878E-1,8.316115E-1,9.220921E-1,-4.7468193E-2,3.393028E-1,-1.14702776E-1,1.8045411E0,1.0059287E-1,1.559301E0,4.775053E0,3.4224576E-1,-1.1188899E-1,-1.5567566E-1,-1.1911219E-2,1.6093731E-1,-1.1556669E-1,-1.3705507E-1,1.6179904E-1,-8.930381E-2,1.4845747E-1,4.01117E-1,-1.156443E-1,-1.00005694E-1,6.075446E-2,-1.15531E-1,5.184935E-1,5.248011E-2,2.4269764E-1,1.0038416E-1,-1.1885335E-1,1.0366869E-2,6.41137E-1,1.2768582E-1,-4.3380905E-2,3.3614483E-2,5.061156E-1,1.37625E-1,4.0796643E-1,7.631345E-2,3.1417197E-1,-7.049794E-2,1.3555866E-1,1.4161867E-1,-5.1676024E-2,-2.3682604E-2,2.3587377E-1,2.6124188E-1,-1.4637296E-1,2.385036E-1,2.8848302E-1,1.4185481E-1,-1.3825259E-1,3.2576373E-1,6.897982E-1,5.259774E-1,1.624047E-2,1.8214053E0,3.0184507E-1],"categories":[],"categories_nodes":[],"categories_segments":[],"categories_sizes":[],"default_left":[0,0,0,0,0,0,0,0,0,1,0,0,0,0,0,0,0,1,1,0,0,1,1,0,0,0,1,0,0,0,0,0,0,0,1,0,1,1,0,1,0,0,0,1,0,0,0,0,1,0,0,0,0,0,0,0,0,0,0,0,0,0,0,0,0,0,0,0,0,0,0,0,0,0,0,0,0,0,0,0,0,0,0,0,0,0,0,0,0,0,0,0,0,0,0,0,0,0,0,0,0,0,0,0,0,0,0],"id":7,"left_children":[1,3,5,7,9,11,13,15,17,19,21,23,25,27,29,-1,31,33,35,37,39,41,43,45,47,49,51,53,55,57,59,61,-1,63,65,67,69,71,73,75,77,79,-1,81,83,85,87,89,91,93,95,97,99,-1,-1,101,-1,103,105,-1,-1,-1,-1,-1,-1,-1,-1,-1,-1,-1,-1,-1,-1,-1,-1,-1,-1,-1,-1,-1,-1,-1,-1,-1,-1,-1,-1,-1,-1,-1,-1,-1,-1,-1,-1,-1,-1,-1,-1,-1,-1,-1,-1,-1,-1,-1,-1],"loss_changes":[2.4677134E3,6.9355835E1,1.3563171E2,1.2510376E1,2.8991682E1,9.3451416E1,2.345398E1,8.647461E-1,6.143738E0,1.2160348E1,7.524626E0,6.251143E1,2.351123E1,3.6906013E0,3.404709E1,0E0,8.357544E-1,4.8638306E0,4.9818597E0,1.1472944E1,4.7405033E0,4.8467827E0,5.923271E0,3.3496185E1,1.7126423E1,2.031469E1,1.1970093E1,3.0230021E0,2.683155E0,5.8665558E1,3.0920217E0,4.5202637E-1,0E0,5.843567E0,2.1403198E0,3.3324132E0,5.7880106E0,1.1796448E1,8.440309E0,3.4769945E0,3.726637E0,5.5496235E0,0E0,4.1189623E0,4.3185797E0,3.0689117E1,2.6303852E1,7.291605E0,7.292693E0,8.847944E0,4.746723E0,7.119873E0,3.173479E0,0E0,0E0,2.93079E0,0E0,3.5670528E0,6.555478E1,0E0,0E0,0E0,0E0,0E0,0E0,0E0,0E0,0E0,0E0,0E0,0E0,0E0,0E0,0E0,0E0,0E0,0E0,0E0,0E0,0E0,0E0,0E0,0E0,0E0,0E0,0E0,0E0,0E0,0E0,0E0,0E0,0E0,0E0,0E0,0E0,0E0,0E0,0E0,0E0,0E0,0E0,0E0,0E0,0E0,0E0,0E0,0E0],"parents":[2147483647,0,0,1,1,2,2,3,3,4,4,5,5,6,6,7,7,8,8,9,9,10,10,11,11,12,12,13,13,14,14,16,16,17,17,18,18,19,19,20,20,21,21,22,22,23,23,24,24,25,25,26,26,27,27,28,28,29,29,30,30,31,31,33,33,34,34,35,35,36,36,37,37,38,38,39,39,40,40,41,41,43,43,44,44,45,45,46,46,47,47,48,48,49,49,50,50,51,51,52,52,55,55,57,57,58,58],"right_children":[2,4,6,8,10,12,14,16,18,20,22,24,26,28,30,-1,32,34,36,38,40,42,44,46,48,50,52,54,56,58,60,62,-1,64,66,68,70,72,74,76,78,80,-1,82,84,86,88,90,92,94,96,98,100,-1,-1,102,-1,104,106,-1,-1,-1,-1,-1,-1,-1,-1,-1,-1,-1,-1,-1,-1,-1,-1,-1,-1,-1,-1,-1,-1,-1,-1,-1,-1,-1,-1,-1,-1,-1,-1,-1,-1,-1,-1,-1,-1,-1,-1,-1,-1,-1,-1,-1,-1,-1,-1],"split_conditions":[-3.5729703E-2,-4.4542894E-2,2.993562E-1,-6.0513064E-2,-3.7237313E-2,-3.7839394E-2,-7.247828E-1,2.1841653E-1,-4.5279317E-2,3.09187E-1,2.00001E0,1.2980981E-2,-7.247828E-1,-1.3368731E-2,9.3614846E-1,7.0012E-2,5.4982256E-2,3.4166074E-1,3.1665495E-1,3.156763E0,1.781323E-1,1E0,7.1714157E-1,-5.443034E-2,1.5394523E0,5.2543003E-2,4.1613096E-1,4.6343144E-2,9.315181E-1,4.6343144E-2,1.814373E-2,5.146193E0,6.3860334E-2,7.0521754E-1,8.995235E-1,1.4103783E0,3.0573538E-1,3.131088E-1,6.816227E-1,2.608544E-1,5.690658E-1,2.0361005E-1,-1.1485601E-2,1.9180389E-1,-4.0132064E-1,-5.318927E-2,5.168076E-3,2.5529597E0,5.886502E-1,2.1352099E-1,8.772749E-1,-8.739304E-3,1.2076855E-2,3.393028E-1,-1.14702776E-1,4.7517332E-1,1.0059287E-1,3.7476444E-1,1.8629144E0,3.4224576E-1,-1.1188899E-1,-1.5567566E-1,-1.1911219E-2,1.6093731E-1,-1.1556669E-1,-1.3705507E-1,1.6179904E-1,-8.930381E-2,1.4845747E-1,4.01117E-1,-1.156443E-1,-1.00005694E-1,6.075446E-2,-1.15531E-1,5.184935E-1,5.248011E-2,2.4269764E-1,1.0038416E-1,-1.1885335E-1,1.0366869E-2,6.41137E-1,1.2768582E-1,-4.3380905E-2,3.3614483E-2,5.061156E-1,1.37625E-1,4.0796643E-1,7.631345E-2,3.1417197E-1,-7.049794E-2,1.3555866E-1,1.4161867E-1,-5.1676024E-2,-2.3682604E-2,2.3587377E-1,2.6124188E-1,-1.4637296E-1,2.385036E-1,2.8848302E-1,1.4185481E-1,-1.3825259E-1,3.2576373E-1,6.897982E-1,5.259774E-1,1.624047E-2,1.8214053E0,3.0184507E-1],"split_indices":[8,8,7,7,14,7,15,251,14,224,317,1,15,4,14,0,12,287,254,15,1,61,283,5,15,5,242,8,8,8,4,11,0,55,52,11,300,296,13,230,15,219,0,234,15,7,9,3,284,4,12,8,14,0,0,5,0,219,15,0,0,0,0,0,0,0,0,0,0,0,0,0,0,0,0,0,0,0,0,0,0,0,0,0,0,0,0,0,0,0,0,0,0,0,0,0,0,0,0,0,0,0,0,0,0,0,0],"split_type":[0,0,0,0,0,0,0,0,0,0,0,0,0,0,0,0,0,0,0,0,0,0,0,0,0,0,0,0,0,0,0,0,0,0,0,0,0,0,0,0,0,0,0,0,0,0,0,0,0,0,0,0,0,0,0,0,0,0,0,0,0,0,0,0,0,0,0,0,0,0,0,0,0,0,0,0,0,0,0,0,0,0,0,0,0,0,0,0,0,0,0,0,0,0,0,0,0,0,0,0,0,0,0,0,0,0,0],"sum_hessian":[8.517552E3,6.067741E3,2.44981E3,5.495123E3,5.7261804E2,2.400962E3,4.8848206E1,1.373503E3,4.12162E3,4.9630716E2,7.631087E1,6.663434E2,1.7346185E3,1.9709435E1,2.913877E1,1.0101366E0,1.3724929E3,4.0757327E3,4.588752E1,3.8029013E2,1.1601704E2,8.658049E0,6.765282E1,3.9999084E2,2.663525E2,1.5290967E2,1.5817089E3,3.527962E0,1.6181473E1,2.521191E1,3.926858E0,1.3714254E3,1.0674361E0,2.567606E3,1.5081266E3,3.9258163E1,6.6293564E0,3.736902E2,6.59995E0,8.34662E1,3.255083E1,6.673401E0,1.984648E0,6.036947E1,7.2833505E0,1.6520259E2,2.3478824E2,1.5251663E2,1.1383589E2,7.0344536E1,8.256513E1,1.5689675E3,1.2741367E1,1.5787817E0,1.9491804E0,1.4263849E1,1.9176233E0,1.1543666E1,1.3668245E1,1.1307011E0,2.796157E0,1.3692814E3,2.144118E0,6.0708146E0,2.5615352E3,1.5067571E3,1.3694838E0,3.393217E1,5.325991E0,4.035661E0,2.5936952E0,3.2741333E2,4.6276848E1,2.5173814E0,4.0825686E0,7.449943E1,8.966773E0,8.859276E0,2.3691557E1,1.6261868E0,5.0472136E0,4.3195633E1,1.7173836E1,2.7631142E0,4.5202365E0,6.13172E1,1.038854E2,1.8092842E2,5.3859818E1,1.360288E2,1.648783E1,9.276885E1,2.106704E1,5.64407E1,1.3903834E1,8.051363E1,2.051503E0,3.7717728E2,1.1917903E3,5.5772943E0,7.1640725E0,7.1187367E0,7.1451125E0,1.0079931E1,1.4637346E0,9.715675E0,3.9525702E0],"tree_param":{"num_deleted":"0","num_feature":"325","num_nodes":"107","size_leaf_vector":"1"}},{"base_weights":[-2.693548E-1,-3.2337353E-1,1.9585323E1,-4.764981E-1,3.1896272E-1,1.0940423E1,1.1132926E1,-4.7931442E-1,1.0645214E0,1.283874E-1,5.93587E-1,3.4873375E-1,1.3940354E1,-4.83632E-1,4.6113133E-1,-9.3862414E-2,1.8078836E0,5.905033E-1,-4.191777E-2,1.0553956E0,5.55755E-1,3.3635952E0,6.063747E0,-4.848241E-1,2.2302128E-1,1.5423212E0,-2.7451832E-2,6.350924E-2,7.507447E-1,4.90193E-1,3.0382128E0,-8.141241E-2,9.6250474E-1,6.7848E-1,4.942861E-2,2.7334714E-1,1.2771492E0,-1.4715913E-1,-7.6349415E-2,4.6154145E-2,6.511861E-1,-1.3451403E-1,2.177274E-1,-5.2753914E-2,1.8331812E-1,1.3556145E0,1.1342335E-1,-4.8907943E-2,1.3231546E-1,4.8406893E-1,1.9559838E-2,2.3496005E-1,2.7799184E-2,-4.1967455E-1,6.074521E-2],"categories":[],"categories_nodes":[],"categories_segments":[],"categories_sizes":[],"default_left":[0,0,0,1,0,0,1,0,0,1,0,0,0,0,0,0,0,0,0,0,0,0,0,0,0,0,0,0,0,0,1,0,0,1,0,0,0,0,0,0,0,0,0,0,0,0,0,0,0,0,0,0,0,0,0],"id":8,"left_children":[1,3,5,7,9,-1,11,13,15,17,19,-1,21,23,25,-1,27,29,31,-1,33,35,-1,37,-1,39,41,-1,-1,43,45,47,49,51,53,-1,-1,-1,-1,-1,-1,-1,-1,-1,-1,-1,-1,-1,-1,-1,-1,-1,-1,-1,-1],"loss_changes":[3.2385088E3,2.9585587E2,7.631643E2,1.1048096E1,3.02439E1,0E0,1.7691211E2,1.0066956E1,5.418798E0,2.704074E1,2.4271484E1,0E0,2.8310303E2,3.8912354E0,6.1654253E0,0E0,3.0469084E0,2.1223984E1,1.0065817E1,0E0,1.4582405E1,3.0673332E0,0E0,3.045288E0,0E0,2.8285933E0,3.1680746E0,0E0,0E0,7.3573112E0,1.1876583E1,1.0440542E1,5.504938E0,1.1537064E1,1.0694916E1,0E0,0E0,0E0,0E0,0E0,0E0,0E0,0E0,0E0,0E0,0E0,0E0,0E0,0E0,0E0,0E0,0E0,0E0,0E0,0E0],"parents":[2147483647,0,0,1,1,2,2,3,3,4,4,6,6,7,7,8,8,9,9,10,10,12,12,13,13,14,14,16,16,17,17,18,18,20,20,21,21,23,23,25,25,26,26,29,29,30,30,31,31,32,32,33,33,34,34],"right_children":[2,4,6,8,10,-1,12,14,16,18,20,-1,22,24,26,-1,28,30,32,-1,34,36,-1,38,-1,40,42,-1,-1,44,46,48,50,52,54,-1,-1,-1,-1,-1,-1,-1,-1,-1,-1,-1,-1,-1,-1,-1,-1,-1,-1,-1,-1],"split_conditions":[2.3793876E0,-4.7693713E-4,7.1714157E-1,9.441736E-1,1.5394523E0,1.0940423E1,3.9573923E-2,1.07900284E-1,-4.536913E-2,4.709E-2,7.9238105E-1,3.4873375E-1,-7.7858485E-2,8.215047E-2,2.0111585E-1,-9.3862414E-2,2.00001E0,1.453456E0,6.988129E-1,1.0553956E0,2.993562E-1,2.0516284E-1,6.063747E0,1.1249984E-2,2.2302128E-1,-7.792477E-3,2.00001E0,6.350924E-2,7.507447E-1,2.6025808E-1,1E0,1.5506275E-1,1.0993457E0,2.105508E-1,-2.3804517E-2,2.7334714E-1,1.2771492E0,-1.4715913E-1,-7.6349415E-2,4.6154145E-2,6.511861E-1,-1.3451403E-1,2.177274E-1,-5.2753914E-2,1.8331812E-1,1.3556145E0,1.1342335E-1,-4.8907943E-2,1.3231546E-1,4.8406893E-1,1.9559838E-2,2.3496005E-1,2.7799184E-2,-4.1967455E-1,6.074521E-2],"split_indices":[5,8,283,182,15,0,262,5,8,234,156,0,15,7,230,0,283,7,4,0,7,226,0,10,0,10,300,0,0,221,155,12,13,235,12,0,0,0,0,0,0,0,0,0,0,0,0,0,0,0,0,0,0,0,0],"split_type":[0,0,0,0,0,0,0,0,0,0,0,0,0,0,0,0,0,0,0,0,0,0,0,0,0,0,0,0,0,0,0,0,0,0,0,0,0,0,0,0,0,0,0,0,0,0,0,0,0,0,0,0,0,0,0],"sum_hessian":[3.012614E3,3.005421E3,7.193154E0,2.427092E3,5.7832886E2,1.2940011E0,5.8991528E0,2.4233523E3,3.7398555E0,3.422749E2,2.3605392E2,1.6067828E0,4.29237E0,2.412761E3,1.0591239E1,1.513871E0,2.2259846E0,9.150705E1,2.5076785E2,1.8399065E0,2.3421402E2,2.1697595E0,2.1226106E0,2.4110234E3,1.7375159E0,2.6251965E0,7.966042E0,1.0705773E0,1.1554073E0,8.9057625E1,2.44943E0,2.421647E2,8.60315E0,1.8824629E2,4.5967728E1,1.1188127E0,1.0509468E0,2.351632E3,5.939123E1,1.2056657E0,1.4195309E0,5.3698378E0,2.5962045E0,1.360921E1,7.544841E1,1.1247628E0,1.3246672E0,2.1004202E2,3.212268E1,4.5230947E0,4.080056E0,1.5941281E2,2.8833479E1,3.6154325E0,4.2352295E1],"tree_param":{"num_deleted":"0","num_feature":"325","num_nodes":"55","size_leaf_vector":"1"}},{"base_weights":[-1.2400936E0,-4.5434195E-1,-2.8375952E1,-4.8651895E-1,1.4710813E0,-1.4963135E-1,9.665591E-3,9.4796616E-1,-1.0016738E-1,2.4962813E-1,-1.2154804E-1],"categories":[],"categories_nodes":[],"categories_segments":[],"categories_sizes":[],"default_left":[0,0,0,0,1,0,0,0,0,0,0],"id":9,"left_children":[1,3,-1,5,7,-1,9,-1,-1,-1,-1],"loss_changes":[1.8154479E4,1.6020565E1,0E0,1.4865112E0,1.4190037E1,0E0,2.6755483E0,0E0,0E0,0E0,0E0],"parents":[2147483647,0,0,1,1,3,3,4,4,6,6],"right_children":[2,4,-1,6,8,-1,10,-1,-1,-1,-1],"split_conditions":[5.454285E-1,1.7470117E-1,-2.8375952E1,5.5431746E-2,7.4241646E-2,-1.4963135E-1,1.3949388E-1,9.4796616E-1,-1.0016738E-1,2.4962813E-1,-1.2154804E-1],"split_indices":[14,7,0,8,226,0,268,0,0,0,0],"split_type":[0,0,0,0,0,0,0,0,0,0,0],"sum_hessian":[2.4710054E2,2.460344E2,1.0661491E0,2.4272537E2,3.309025E0,2.3687114E2,5.8542247E0,1.3217165E0,1.9873085E0,1.6255475E0,4.228677E0],"tree_param":{"num_deleted":"0","num_feature":"325","num_nodes":"11","size_leaf_vector":"1"}},{"base_weights":[5.0904922E-2,2.7156618E-1,-4.969905E-1,5.356737E-1,1.9376613E-1,-2.8572688E-1,-6.541993E-1,5.741507E-1,3.0637613E-1,2.5007713E-1,3.1051159E-2,-1.2339143E-1,-4.270651E-1,1.8363686E-1,-6.6285557E-1,-2.3732926E-1,5.749615E-1,3.7600082E-1,1.9709192E-1,2.811674E-1,8.6827554E-2,6.682743E-2,-4.0818134E-1,3.1294532E-2,-3.4936395E-1,-1.6011162E-1,-5.509625E-1,3.64075E-1,-3.7283528E-1,-5.53916E-1,-7.1381354E-1,1.1566596E-1,-1.9959393E-1,5.755503E-1,-1.8149906E-1,-1.826872E-1,3.8378558E-1,1.6664768E-2,2.677948E-1,1.5425107E-1,3.1833982E-1,1.2960114E-1,-1.8348129E-1,1.224939E-1,-2.1840592E-1,1.5394176E-2,-5.339905E-1,1.0581996E-1,-5.040257E-1,-2.3667966E-1,-5.7856435E-1,-9.362328E-2,-6.7776376E-1,-5.869123E-1,-1.550824E-1,-2.394168E-1,4.894056E-1,1.2987249E-1,-6.030416E-1,-2.2816938E-1,-6.4669526E-1,-7.145206E-1,9.676911E-2,-6.2115382E-2,1.7275785E-1,9.041283E-2,-1.6352037E-1,1.5623054E-1,9.950166E-2,-3.080759E-2,1.1566706E-1,9.471261E-2,1.0128568E-2,1.2421418E-1,3.4296162E-2,8.656125E-2,1.2254265E-1,5.4047637E-2,-1.480708E-2,1.601133E-2,-1.12876765E-1,4.286323E-2,-1.3700642E-1,8.668649E-2,-8.7892726E-2,4.485593E-2,-2.2072375E-1,-1.841529E-1,-8.7424725E-2,-8.1499325E-5,6.510772E-2,-9.3646824E-2,-2.1915375E-1,2.5731523E-2,-9.688549E-2,8.048869E-2,-1.810722E-1,-4.2472663E-3,-1.7903057E-1,-2.7049658E-1,-1.395386E-2,-5.2639954E-2,-1.8452328E-1,9.205955E-3,-1.5834363E-1,-1.9173421E-1,1.2814185E-1,2.015921E-1,3.7262756E-2,-2.3361662E-1,9.854195E-2,-1.2247629E-1,-1.9147301E-2,-7.589241E-2,-2.0459263E-1,2.1820586E-2,-2.1463634E-1],"categories":[],"categories_nodes":[],"categories_segments":[],"categories_sizes":[],"default_left":[0,0,0,0,0,0,0,0,1,1,1,0,0,0,0,0,0,0,0,0,1,1,0,1,0,0,0,0,0,0,1,0,0,0,0,0,0,1,1,0,0,0,0,0,0,1,0,0,0,0,0,1,0,0,0,1,0,0,0,0,0,0,0,0,0,0,0,0,0,0,0,0,0,0,0,0,0,0,0,0,0,0,0,0,0,0,0,0,0,0,0,0,0,0,0,0,0,0,0,0,0,0,0,0,0,0,0,0,0,0,0,0,0,0,0,0,0],"id":10,"left_children":[1,3,5,7,9,11,13,15,17,19,21,23,25,27,29,31,33,35,37,39,41,43,45,47,49,51,53,55,57,59,61,-1,-1,63,65,-1,67,69,71,73,75,77,79,81,83,85,87,89,91,93,95,97,99,101,103,105,107,-1,109,111,113,115,-1,-1,-1,-1,-1,-1,-1,-1,-1,-1,-1,-1,-1,-1,-1,-1,-1,-1,-1,-1,-1,-1,-1,-1,-1,-1,-1,-1,-1,-1,-1,-1,-1,-1,-1,-1,-1,-1,-1,-1,-1,-1,-1,-1,-1,-1,-1,-1,-1,-1,-1,-1,-1,-1,-1],"loss_changes":[2.7928313E3,3.382721E2,2.200929E2,3.287976E1,1.1656171E2,6.491399E1,2.7695557E1,2.24646E0,4.038559E0,4.794519E1,5.144384E1,4.612567E1,4.9961853E1,4.1181345E0,2.0495605E1,1.2986095E0,1.5319824E0,2.756836E0,2.7056675E0,3.7404602E1,1.7522383E1,4.808009E1,1.3148296E1,3.1334307E1,1.3711288E1,1.6494854E1,1.4612488E1,2.4207606E0,2.154062E0,3.6233917E1,2.1066895E0,0E0,0E0,8.939209E-1,7.3530865E-1,0E0,2.162281E0,2.7200613E0,1.700161E0,1.8629532E1,1.6374207E1,1.1836634E1,9.479853E0,2.9967758E1,1.879545E1,5.8967633E0,3.504158E0,8.129961E0,3.9433632E0,1.0074427E1,3.8902588E0,1.7084099E1,7.6746826E0,1.0863739E1,6.0656986E0,1.8472321E0,1.6198606E0,0E0,1.6231713E0,7.9175863E0,1.2834351E1,1.9335938E0,0E0,0E0,0E0,0E0,0E0,0E0,0E0,0E0,0E0,0E0,0E0,0E0,0E0,0E0,0E0,0E0,0E0,0E0,0E0,0E0,0E0,0E0,0E0,0E0,0E0,0E0,0E0,0E0,0E0,0E0,0E0,0E0,0E0,0E0,0E0,0E0,0E0,0E0,0E0,0E0,0E0,0E0,0E0,0E0,0E0,0E0,0E0,0E0,0E0,0E0,0E0,0E0,0E0,0E0,0E0],"parents":[2147483647,0,0,1,1,2,2,3,3,4,4,5,5,6,6,7,7,8,8,9,9,10,10,11,11,12,12,13,13,14,14,15,15,16,16,17,17,18,18,19,19,20,20,21,21,22,22,23,23,24,24,25,25,26,26,27,27,28,28,29,29,30,30,33,33,34,34,36,36,37,37,38,38,39,39,40,40,41,41,42,42,43,43,44,44,45,45,46,46,47,47,48,48,49,49,50,50,51,51,52,52,53,53,54,54,55,55,56,56,58,58,59,59,60,60,61,61],"right_children":[2,4,6,8,10,12,14,16,18,20,22,24,26,28,30,32,34,36,38,40,42,44,46,48,50,52,54,56,58,60,62,-1,-1,64,66,-1,68,70,72,74,76,78,80,82,84,86,88,90,92,94,96,98,100,102,104,106,108,-1,110,112,114,116,-1,-1,-1,-1,-1,-1,-1,-1,-1,-1,-1,-1,-1,-1,-1,-1,-1,-1,-1,-1,-1,-1,-1,-1,-1,-1,-1,-1,-1,-1,-1,-1,-1,-1,-1,-1,-1,-1,-1,-1,-1,-1,-1,-1,-1,-1,-1,-1,-1,-1,-1,-1,-1,-1,-1],"split_conditions":[-4.647078E-2,-6.0513064E-2,-3.5178877E-2,-5.252985E-2,-5.0601963E-2,8.92528E-1,-1.048245E0,7.616615E-1,2.0364755E-1,2.8645608E-1,3.630767E-1,-5.1483728E-2,-5.770394E-2,9.663112E-3,-4.3557975E-2,-5.443034E-2,2.8333008E0,3.6979115E-1,7.148758E-1,-3.9072222E-1,5.466722E-1,1.018847E-1,-6.0098853E-2,3.1019607E-1,-3.7839394E-2,-1.1072012E-2,8.570877E-1,-1.9545773E-2,6.1870795E-1,2.4560367E-1,3.14603E-1,1.1566596E-1,-1.9959393E-1,3.177225E-1,2.00001E0,-1.826872E-1,-7.247828E-1,8.523257E-2,4.5221737E-1,-7.247828E-1,5.690658E-1,7.6466197E-1,-4.0132064E-1,-4.6066124E-2,-5.9660293E-2,2.9891655E-1,4.586137E-1,1.781323E-1,2.0977724E-1,-7.247828E-1,-1.048245E0,6.2033325E-1,-7.066239E-3,5.443141E-1,-4.7972318E-2,2.8340173E-1,2.1683212E-1,1.2987249E-1,1.664494E0,3.7998387E-1,6.3115185E-1,7.3710304E-1,9.676911E-2,-6.2115382E-2,1.7275785E-1,9.041283E-2,-1.6352037E-1,1.5623054E-1,9.950166E-2,-3.080759E-2,1.1566706E-1,9.471261E-2,1.0128568E-2,1.2421418E-1,3.4296162E-2,8.656125E-2,1.2254265E-1,5.4047637E-2,-1.480708E-2,1.601133E-2,-1.12876765E-1,4.286323E-2,-1.3700642E-1,8.668649E-2,-8.7892726E-2,4.485593E-2,-2.2072375E-1,-1.841529E-1,-8.7424725E-2,-8.1499325E-5,6.510772E-2,-9.3646824E-2,-2.1915375E-1,2.5731523E-2,-9.688549E-2,8.048869E-2,-1.810722E-1,-4.2472663E-3,-1.7903057E-1,-2.7049658E-1,-1.395386E-2,-5.2639954E-2,-1.8452328E-1,9.205955E-3,-1.5834363E-1,-1.9173421E-1,1.2814185E-1,2.015921E-1,3.7262756E-2,-2.3361662E-1,9.854195E-2,-1.2247629E-1,-1.9147301E-2,-7.589241E-2,-2.0459263E-1,2.1820586E-2,-2.1463634E-1],"split_indices":[8,7,8,8,8,15,15,33,284,311,296,7,7,10,7,5,15,239,311,1,317,224,14,296,7,10,1,12,281,15,315,0,0,271,287,0,15,230,300,15,15,311,15,7,7,283,254,1,300,15,15,287,4,314,7,219,262,0,1,1,281,87,0,0,0,0,0,0,0,0,0,0,0,0,0,0,0,0,0,0,0,0,0,0,0,0,0,0,0,0,0,0,0,0,0,0,0,0,0,0,0,0,0,0,0,0,0,0,0,0,0,0,0,0,0,0,0],"split_type":[0,0,0,0,0,0,0,0,0,0,0,0,0,0,0,0,0,0,0,0,0,0,0,0,0,0,0,0,0,0,0,0,0,0,0,0,0,0,0,0,0,0,0,0,0,0,0,0,0,0,0,0,0,0,0,0,0,0,0,0,0,0,0,0,0,0,0,0,0,0,0,0,0,0,0,0,0,0,0,0,0,0,0,0,0,0,0,0,0,0,0,0,0,0,0,0,0,0,0,0,0,0,0,0,0,0,0,0,0,0,0,0,0,0,0,0,0],"sum_hessian":[2.309836E4,1.646692E4,6.631439E3,3.7456602E3,1.2721261E4,2.830506E3,3.800933E3,3.2061516E3,5.395084E2,9.45026E3,3.2710012E3,1.3182686E3,1.5122374E3,3.8661804E1,3.7622712E3,2.909078E0,3.2032427E3,3.2806107E2,2.1144737E2,7.9378115E3,1.5124481E3,3.025423E3,2.4557826E2,7.8308295E2,5.3518567E2,4.8009683E2,1.0321406E3,2.945625E1,9.205554E0,1.202787E3,2.5594844E3,1.2251501E0,1.6839278E0,3.20099E3,2.2526982E0,1.9669771E0,3.260941E2,5.9878555E1,1.5156882E2,1.799388E3,6.1384233E3,1.3062656E3,2.061825E2,2.5318708E3,4.9355225E2,5.6438435E1,1.8913983E2,6.8809155E2,9.49914E1,3.6015256E2,1.7503311E2,4.2649747E2,5.359938E1,9.457725E2,8.6368034E1,4.908855E0,2.4547396E1,1.8499687E0,7.355585E0,2.67402E2,9.35385E2,2.5580498E3,1.4345105E0,1.0000226E0,3.19999E3,1.0410652E0,1.211633E0,8.739048E1,2.3870361E2,4.5785927E1,1.4092627E1,1.255216E2,2.6047215E1,2.3847192E2,1.560916E3,4.6162974E3,1.5221257E3,1.01851666E3,2.8774893E2,9.283903E1,1.1334347E2,2.446522E3,8.534876E1,6.2876408E1,4.3067584E2,4.8567104E1,7.8713303E0,1.411459E2,4.7993927E1,3.5265347E2,3.3543808E2,5.2713276E1,4.2278126E1,7.602102E1,2.8413153E2,4.741796E0,1.702913E2,3.6921286E2,5.728458E1,3.9249905E1,1.4349477E1,6.10576E1,8.8471497E2,5.825256E1,2.8115475E1,3.094452E0,1.8144029E0,1.5805778E1,8.741617E0,6.3264623E0,1.0291227E0,1.2688295E2,1.4051904E2,7.759602E1,8.57789E2,2.939872E0,2.5551099E3],"tree_param":{"num_deleted":"0","num_feature":"325","num_nodes":"117","size_leaf_vector":"1"}},{"base_weights":[6.994337E-3,-2.2314346E-1,2.7228114E-1,-4.8895356E-1,-1.2525988E-1,3.02714E-1,-3.354109E-1,-5.4244125E-1,-1.8732621E-1,3.549983E-2,-1.6896941E-1,7.8076386E-4,3.6164346E-1,1.6922453E-2,-4.2557123E-1,1.5716855E-1,-5.4326355E-1,-3.868153E-1,-1.126847E-1,-2.0030466E-1,1.12828985E-1,-2.0198217E-1,4.8003756E-2,-1.4638595E-2,9.676642E-1,2.2975345E-1,4.0265253E-1,-1.6355619E-1,1.211162E-1,-2.8173107E-1,-5.121203E-1,-1.07923836E-1,2.0278652E-1,5.1367313E-2,-5.437205E-1,2.5954497E-1,-4.0946302E-1,-3.7701184E-1,-5.452214E-2,-4.260612E-2,-2.8955954E-1,2.4128053E-1,-6.309661E-2,-1.6636387E-1,-3.125814E-1,4.9964157E-1,-5.6176838E-3,-2.8721595E-2,1.0489644E0,1.540951E0,3.8374016E-1,-1.0580463E-1,3.139849E-1,4.3301153E-1,9.4566464E-2,1.1184367E0,6.2140174E-2,-3.4322932E-1,7.5128186E-1,-5.169825E-1,6.3203715E-2,-1.6323508E-1,1.3048325E-2,-1.1410965E-1,2.87067E-1,-1.4517407E-1,-6.6026255E-2,-1.23819344E-1,1.9576602E-1,2.0802304E-2,-5.2896675E-2,1.5049693E-1,-3.8034484E-2,-1.04670756E-1,-3.276929E-2,5.619948E-2,2.2965151E-1,-3.261973E-2,1.00083865E-1,-7.9556644E-2,-1.2620645E-2,-9.880758E-2,2.8136167E-1,1.7829747E-1,-4.615678E-2,1.3072157E-2,-6.2347587E-2,3.0645499E-2,-3.617227E-2,3.816556E-1,-1.21178664E-1,5.462188E-1,-1.0493422E-1,-4.5936104E-2,3.317981E-1,-5.6037363E-2,7.407673E-2,1.13444306E-1,-1.6674079E-2,-7.60169E-2,1.3155584E-1,7.19934E-2,-9.63322E-2,3.3823535E-2,4.6129468E-1,-5.9301343E-2,1.15786515E-1,-1.2584558E-1,4.0654913E-3,-1.0194946E-1,3.2390043E-1,-1.5655749E-1,6.197079E-2],"categories":[],"categories_nodes":[],"categories_segments":[],"categories_sizes":[],"default_left":[0,0,0,0,0,0,0,0,0,0,1,0,0,1,0,0,0,0,0,0,0,0,0,1,0,0,0,0,0,0,1,0,0,0,0,1,1,1,0,0,1,1,0,0,1,1,0,0,0,0,0,0,1,0,0,0,1,0,0,1,0,0,0,0,0,0,0,0,0,0,0,0,0,0,0,0,0,0,0,0,0,0,0,0,0,0,0,0,0,0,0,0,0,0,0,0,0,0,0,0,0,0,0,0,0,0,0,0,0,0,0,0,0],"id":11,"left_children":[1,3,5,7,9,11,13,15,17,19,21,23,25,27,29,31,33,35,37,39,41,43,45,47,49,51,53,-1,55,57,59,-1,-1,-1,61,63,65,67,69,71,73,75,77,79,81,83,85,87,89,91,93,95,97,99,101,103,105,107,109,111,-1,-1,-1,-1,-1,-1,-1,-1,-1,-1,-1,-1,-1,-1,-1,-1,-1,-1,-1,-1,-1,-1,-1,-1,-1,-1,-1,-1,-1,-1,-1,-1,-1,-1,-1,-1,-1,-1,-1,-1,-1,-1,-1,-1,-1,-1,-1,-1,-1,-1,-1,-1,-1],"loss_changes":[1.0854054E3,2.4762878E2,1.5283148E2,4.1228577E1,4.8905014E1,1.3994196E2,1.2533623E1,1.3369141E0,5.7246485E0,2.7163952E1,3.9201736E1,1.9177662E1,3.550055E1,4.8281136E0,3.7650375E0,1.1360619E0,8.0255127E-1,1.6443195E0,4.3351507E0,5.1665325E0,2.5359194E1,1.8656677E1,1.7521036E1,1.8996132E1,6.1680126E0,4.4215736E1,4.6898376E1,0E0,4.013161E0,7.8932962E0,7.936287E-1,0E0,0E0,0E0,5.2923584E-1,2.2242818E0,1.3301849E0,2.1422472E0,3.5332587E0,6.2096887E0,2.474369E0,1.819503E1,8.619264E0,4.414073E1,2.455552E1,4.84223E0,6.4505863E0,1.5046127E1,5.8887844E0,5.8511295E0,4.5643826E0,9.02738E0,2.9656105E1,1.7381409E1,2.7364407E1,1.4357195E0,5.6789913E0,3.1105738E0,2.8989723E0,7.915611E-1,0E0,0E0,0E0,0E0,0E0,0E0,0E0,0E0,0E0,0E0,0E0,0E0,0E0,0E0,0E0,0E0,0E0,0E0,0E0,0E0,0E0,0E0,0E0,0E0,0E0,0E0,0E0,0E0,0E0,0E0,0E0,0E0,0E0,0E0,0E0,0E0,0E0,0E0,0E0,0E0,0E0,0E0,0E0,0E0,0E0,0E0,0E0,0E0,0E0,0E0,0E0,0E0,0E0],"parents":[2147483647,0,0,1,1,2,2,3,3,4,4,5,5,6,6,7,7,8,8,9,9,10,10,11,11,12,12,13,13,14,14,15,15,16,16,17,17,18,18,19,19,20,20,21,21,22,22,23,23,24,24,25,25,26,26,28,28,29,29,30,30,34,34,35,35,36,36,37,37,38,38,39,39,40,40,41,41,42,42,43,43,44,44,45,45,46,46,47,47,48,48,49,49,50,50,51,51,52,52,53,53,54,54,55,55,56,56,57,57,58,58,59,59],"right_children":[2,4,6,8,10,12,14,16,18,20,22,24,26,28,30,32,34,36,38,40,42,44,46,48,50,52,54,-1,56,58,60,-1,-1,-1,62,64,66,68,70,72,74,76,78,80,82,84,86,88,90,92,94,96,98,100,102,104,106,108,110,112,-1,-1,-1,-1,-1,-1,-1,-1,-1,-1,-1,-1,-1,-1,-1,-1,-1,-1,-1,-1,-1,-1,-1,-1,-1,-1,-1,-1,-1,-1,-1,-1,-1,-1,-1,-1,-1,-1,-1,-1,-1,-1,-1,-1,-1,-1,-1,-1,-1,-1,-1,-1,-1],"split_conditions":[-5.0601963E-2,-6.0513064E-2,4.979534E-2,-5.252985E-2,-4.4944268E-1,-5.905834E-2,3.103422E-3,7.616615E-1,-7.247828E-1,-4.0132064E-1,5.5888736E-1,1.1567358E-2,-4.647078E-2,6.1808288E-2,1.1030056E-1,3.7476444E-1,7.137465E-1,4.5307654E-1,2.8038695E-1,1E0,5.690658E-1,5.690658E-1,5.9894854E-1,1E0,1.5936866E-1,-4.0132064E-1,-2.8757942E-3,-1.6355619E-1,3.354207E-1,3.1325057E0,5.2699465E-1,-1.07923836E-1,2.0278652E-1,5.1367313E-2,5.101282E0,5.334056E-1,4.754001E-1,4.4956258E-1,-2.0722076E-1,4.4470122E-1,3.6764592E-1,5.255487E-1,-5.0877377E-2,-4.0132064E-1,1E0,4.2184052E-1,5.690658E-1,-3.1732163E-1,-6.0200013E-2,4.5399282E-2,1.4104001E-1,-4.9040455E-2,4.0903252E-1,-1.048245E0,1.5394523E0,-2.0031206E-2,2.3110804E-1,4.383375E-2,2.628639E-1,6.9959635E-1,6.3203715E-2,-1.6323508E-1,1.3048325E-2,-1.1410965E-1,2.87067E-1,-1.4517407E-1,-6.6026255E-2,-1.23819344E-1,1.9576602E-1,2.0802304E-2,-5.2896675E-2,1.5049693E-1,-3.8034484E-2,-1.04670756E-1,-3.276929E-2,5.619948E-2,2.2965151E-1,-3.261973E-2,1.00083865E-1,-7.9556644E-2,-1.2620645E-2,-9.880758E-2,2.8136167E-1,1.7829747E-1,-4.615678E-2,1.3072157E-2,-6.2347587E-2,3.0645499E-2,-3.617227E-2,3.816556E-1,-1.21178664E-1,5.462188E-1,-1.0493422E-1,-4.5936104E-2,3.317981E-1,-5.6037363E-2,7.407673E-2,1.13444306E-1,-1.6674079E-2,-7.60169E-2,1.3155584E-1,7.19934E-2,-9.63322E-2,3.3823535E-2,4.6129468E-1,-5.9301343E-2,1.15786515E-1,-1.2584558E-1,4.0654913E-3,-1.0194946E-1,3.2390043E-1,-1.5655749E-1,6.197079E-2],"split_indices":[8,7,7,8,1,7,8,33,15,15,311,10,8,234,14,219,149,311,230,284,15,15,317,317,234,15,7,0,250,1,269,0,0,0,3,281,284,227,1,266,283,311,8,15,317,61,15,1,14,9,13,5,314,15,15,8,219,10,235,266,0,0,0,0,0,0,0,0,0,0,0,0,0,0,0,0,0,0,0,0,0,0,0,0,0,0,0,0,0,0,0,0,0,0,0,0,0,0,0,0,0,0,0,0,0,0,0,0,0,0,0,0,0],"split_type":[0,0,0,0,0,0,0,0,0,0,0,0,0,0,0,0,0,0,0,0,0,0,0,0,0,0,0,0,0,0,0,0,0,0,0,0,0,0,0,0,0,0,0,0,0,0,0,0,0,0,0,0,0,0,0,0,0,0,0,0,0,0,0,0,0,0,0,0,0,0,0,0,0,0,0,0,0,0,0,0,0,0,0,0,0,0,0,0,0,0,0,0,0,0,0,0,0,0,0,0,0,0,0,0,0,0,0,0,0,0,0,0,0],"sum_hessian":[1.7776227E4,9.518786E3,8.257441E3,2.5607864E3,6.9579995E3,7.8641133E3,3.933283E2,2.174401E3,3.8638556E2,1.4874564E3,5.470543E3,1.2843882E3,6.579725E3,8.030816E1,3.1302017E2,2.3295872E0,2.1720713E3,1.0406802E2,2.8231754E2,3.6693848E2,1.1205181E3,4.7481714E3,7.223716E2,1.2651964E3,1.919184E1,1.562178E3,5.017547E3,1.1896402E1,6.841176E1,1.1918913E2,1.9383102E2,1.3204569E0,1.0091304E0,1.1492953E0,2.1709219E3,3.168879E0,1.0089914E2,4.9928596E1,2.3238893E2,1.331543E2,2.3378416E2,6.474285E2,4.7308945E2,3.5934202E3,1.154751E3,7.5780075E1,6.465915E2,1.2496233E3,1.557307E1,8.857115E0,1.0334724E1,3.134021E2,1.2487759E3,4.567097E3,4.5045016E2,2.8166263E0,6.559513E1,1.1312237E2,6.066763E0,1.9281871E2,1.0123134E0,2.1695308E3,1.3913049E0,1.889528E0,1.279351E0,7.130944E1,2.9589703E1,4.8833508E1,1.0950888E0,1.1543221E2,1.1695672E2,1.7170902E1,1.159834E2,1.7519559E2,5.8588573E1,5.8824817E2,5.918039E1,4.2493286E2,4.8156593E1,2.0011808E3,1.5922395E3,1.1401898E3,1.4561199E1,6.626909E1,9.510986E0,5.2070325E2,1.2588824E2,5.153011E2,7.343222E2,1.36069E1,1.9661702E0,7.7476864E0,1.1094286E0,6.38022E0,3.9545047E0,2.5526367E2,5.813842E1,1.0640206E3,1.8475525E2,3.599792E1,4.531099E3,3.340241E2,1.16426056E2,1.2019908E0,1.6146353E0,3.6610462E1,2.8984673E1,9.30572E1,2.0065165E1,1.3954183E0,4.6713448E0,1.9180496E2,1.0137479E0],"tree_param":{"num_deleted":"0","num_feature":"325","num_nodes":"113","size_leaf_vector":"1"}},{"base_weights":[-5.662769E-2,-3.7296194E-1,5.2254766E-1,-4.1033918E-1,-7.564201E-2,3.0230695E-1,6.1656106E-1,-5.083894E-1,-3.8078713E-1,-1.7341533E-1,2.8561288E-1,-5.800793E-2,4.4900724E-1,6.233885E-1,-3.2332066E-1,-5.102476E-1,1.07548345E-4,-3.5243812E-1,-4.4137183E-1,-2.6831838E-1,1.00127295E-1,5.441827E-1,8.7135755E-2,3.6312738E-1,-1.8531705E-1,5.790186E-1,1.7714502E-1,5.869445E-1,7.530896E-1,1.6868699E-1,-4.464749E-1,-5.111853E-1,1.986122E-3,1.6220757E-1,-1.1111018E-1,-3.5818243E-1,6.7545526E-2,-4.4307816E-1,2.0846966E-1,2.4290751E-1,-3.0330187E-1,6.1420273E-2,9.580314E-1,7.203648E-1,-8.144936E-2,-4.7946926E-2,1.0286376E0,7.0177495E-1,8.397069E-2,-2.037174E-1,4.1242644E-1,-2.4903608E-2,6.5346E-1,1.5683221E0,1.3823019E-1,6.2811905E-1,3.4560922E-1,8.1804913E-1,1.0177748E-1,-1.754496E-1,1.18320204E-1,-1.5363595E-1,5.3781795E-4,2.8779545E-1,-1.07918605E-1,-8.093856E-2,1.1179181E-1,-1.381793E-1,-9.6618555E-2,2.7458673E-2,5.161714E-1,-1.0346348E-1,3.2326985E-2,1.2163349E-1,-1.1179769E-2,7.040693E-1,-4.0961195E-2,2.8917003E-1,-5.685239E-2,-1.496809E-1,1.4982508E-1,-4.954739E-2,2.553282E-1,3.4382296E-1,2.6921092E-2,2.573245E-1,-1.242419E-1,-9.4350785E-2,1.4005202E-1,-8.713057E-2,-6.1313384E-3,-5.6967247E-2,2.5444067E-1,2.642803E-1,1.3872376E-1,1.1150385E-1,5.7818085E-1,1.3318345E-2,1.7652251E-1,1.17215954E-1,1.9777362E-1,6.762879E-3,1.517022E-1,1.8373954E-1,2.7831072E-1,-4.4247888E-2,1.2834585E-1],"categories":[],"categories_nodes":[],"categories_segments":[],"categories_sizes":[],"default_left":[0,0,0,0,0,0,0,0,1,1,1,0,0,0,0,1,0,0,1,0,0,1,0,1,0,0,0,0,0,0,1,0,0,0,0,0,0,0,0,1,0,0,0,0,0,0,1,0,0,0,0,0,0,0,0,0,0,0,0,0,0,0,0,0,0,0,0,0,0,0,0,0,0,0,0,0,0,0,0,0,0,0,0,0,0,0,0,0,0,0,0,0,0,0,0,0,0,0,0,0,0,0,0,0,0,0,0],"id":12,"left_children":[1,3,5,7,9,11,13,15,17,19,21,23,25,27,29,31,33,35,37,39,41,43,45,47,49,51,53,55,57,-1,59,61,-1,-1,-1,63,65,67,-1,69,71,73,75,77,79,81,83,85,87,89,-1,91,93,95,97,99,101,103,105,-1,-1,-1,-1,-1,-1,-1,-1,-1,-1,-1,-1,-1,-1,-1,-1,-1,-1,-1,-1,-1,-1,-1,-1,-1,-1,-1,-1,-1,-1,-1,-1,-1,-1,-1,-1,-1,-1,-1,-1,-1,-1,-1,-1,-1,-1,-1,-1],"loss_changes":[1.4585469E3,5.7186096E1,5.8041748E1,1.3058411E1,2.0401646E1,4.459989E1,1.2842651E1,9.980774E-1,5.887146E0,1.1815146E1,6.2705803E0,1.3196292E1,2.1083054E1,8.803955E0,1.8723522E0,5.133972E-1,1.1706543E0,5.8184204E0,2.47464E0,6.107912E0,3.849352E0,5.930459E0,9.058612E0,5.346714E0,5.696781E0,1.8225616E1,1.0359066E1,1.5001587E1,1.7920547E1,0E0,1.8138087E0,5.044861E-1,0E0,0E0,0E0,5.1720886E0,3.5223973E0,2.2187653E0,0E0,4.800548E0,5.441744E0,3.8745956E0,7.9402013E0,9.415546E0,3.3055966E0,6.7694097E0,8.8212585E-1,4.828639E0,5.1019955E0,2.9720292E0,0E0,6.7020802E0,1.5264999E1,1.5254631E0,8.047863E0,9.401062E0,1.1646309E1,8.151337E0,3.2923918E0,0E0,0E0,0E0,0E0,0E0,0E0,0E0,0E0,0E0,0E0,0E0,0E0,0E0,0E0,0E0,0E0,0E0,0E0,0E0,0E0,0E0,0E0,0E0,0E0,0E0,0E0,0E0,0E0,0E0,0E0,0E0,0E0,0E0,0E0,0E0,0E0,0E0,0E0,0E0,0E0,0E0,0E0,0E0,0E0,0E0,0E0,0E0,0E0],"parents":[2147483647,0,0,1,1,2,2,3,3,4,4,5,5,6,6,7,7,8,8,9,9,10,10,11,11,12,12,13,13,14,14,15,15,16,16,17,17,18,18,19,19,20,20,21,21,22,22,23,23,24,24,25,25,26,26,27,27,28,28,30,30,31,31,35,35,36,36,37,37,39,39,40,40,41,41,42,42,43,43,44,44,45,45,46,46,47,47,48,48,49,49,51,51,52,52,53,53,54,54,55,55,56,56,57,57,58,58],"right_children":[2,4,6,8,10,12,14,16,18,20,22,24,26,28,30,32,34,36,38,40,42,44,46,48,50,52,54,56,58,-1,60,62,-1,-1,-1,64,66,68,-1,70,72,74,76,78,80,82,84,86,88,90,-1,92,94,96,98,100,102,104,106,-1,-1,-1,-1,-1,-1,-1,-1,-1,-1,-1,-1,-1,-1,-1,-1,-1,-1,-1,-1,-1,-1,-1,-1,-1,-1,-1,-1,-1,-1,-1,-1,-1,-1,-1,-1,-1,-1,-1,-1,-1,-1,-1,-1,-1,-1,-1,-1],"split_conditions":[-3.5729703E-2,-4.4542894E-2,-3.45788E-2,-6.0513064E-2,-4.4065427E-2,8.92528E-1,8.772749E-1,5.977179E-2,4.1977015E-1,3.09187E-1,2.4616674E-1,-5.443034E-2,1.2980981E-2,1.4233214E-1,2.5010666E-1,1E0,-4.0132064E-1,-4.5279317E-2,8.098578E-1,4.5989317E-1,3.4572944E-2,3.1534916E-1,2.6519716E-2,1.2447118E-1,-9.1553135E-3,-5.6299374E-2,7.1400297E-1,1.2908851E0,2.1863766E0,1.6868699E-1,1E0,5.146193E0,1.986122E-3,1.6220757E-1,-1.1111018E-1,8.2832074E-1,-4.7297016E-2,-4.894949E-2,2.0846966E-1,2.1946168E-1,-1.1405577E-2,-4.4944268E-1,1.2871464E-1,7.102865E-1,-1.4481787E-2,1.8629144E0,7.545692E-1,-2.8062135E-1,-4.2750385E-2,-3.401219E-2,4.1242644E-1,1.1249984E-2,-5.157687E-2,4.9878454E-1,2.5098388E0,-4.0132064E-1,1.7477054E-2,4.2769447E-1,3.6329995E-3,-1.754496E-1,1.18320204E-1,-1.5363595E-1,5.3781795E-4,2.8779545E-1,-1.07918605E-1,-8.093856E-2,1.1179181E-1,-1.381793E-1,-9.6618555E-2,2.7458673E-2,5.161714E-1,-1.0346348E-1,3.2326985E-2,1.2163349E-1,-1.1179769E-2,7.040693E-1,-4.0961195E-2,2.8917003E-1,-5.685239E-2,-1.496809E-1,1.4982508E-1,-4.954739E-2,2.553282E-1,3.4382296E-1,2.6921092E-2,2.573245E-1,-1.242419E-1,-9.4350785E-2,1.4005202E-1,-8.713057E-2,-6.1313384E-3,-5.6967247E-2,2.5444067E-1,2.642803E-1,1.3872376E-1,1.1150385E-1,5.7818085E-1,1.3318345E-2,1.7652251E-1,1.17215954E-1,1.9777362E-1,6.762879E-3,1.517022E-1,1.8373954E-1,2.7831072E-1,-4.4247888E-2,1.2834585E-1],"split_indices":[8,8,7,7,14,15,12,5,287,224,300,5,1,5,279,79,15,14,52,296,9,314,7,254,5,7,165,1,15,0,61,11,0,0,0,65,8,8,0,273,9,1,254,1,5,15,311,1,14,5,0,10,5,222,15,15,5,243,10,0,0,0,0,0,0,0,0,0,0,0,0,0,0,0,0,0,0,0,0,0,0,0,0,0,0,0,0,0,0,0,0,0,0,0,0,0,0,0,0,0,0,0,0,0,0,0,0],"split_type":[0,0,0,0,0,0,0,0,0,0,0,0,0,0,0,0,0,0,0,0,0,0,0,0,0,0,0,0,0,0,0,0,0,0,0,0,0,0,0,0,0,0,0,0,0,0,0,0,0,0,0,0,0,0,0,0,0,0,0,0,0,0,0,0,0,0,0,0,0,0,0,0,0,0,0,0,0,0,0,0,0,0,0,0,0,0,0,0,0,0,0,0,0,0,0,0,0,0,0,0,0,0,0,0,0,0,0],"sum_hessian":[7.958872E3,5.147671E3,2.8112012E3,4.5724683E3,5.752029E2,8.4227057E2,1.9689305E3,1.0552079E3,3.5172603E3,4.5309348E2,1.2210939E2,2.4387834E2,5.983922E2,1.9550653E3,1.3865248E1,1.0513624E3,3.8453875E0,2.4007224E3,1.1165377E3,3.3640128E2,1.1669219E2,5.2270817E1,6.983857E1,5.618093E1,1.876974E2,4.040402E2,1.9435204E2,1.5305339E3,4.245314E2,1.2574077E0,1.260784E1,1.0494695E3,1.892951E0,1.3768612E0,2.4685261E0,2.3684749E3,3.224759E1,1.1154727E3,1.065052E0,2.1165071E1,3.152362E2,1.1267988E2,4.012311E0,4.0667236E1,1.16035795E1,6.190568E1,7.93289E0,2.4701456E1,3.1479477E1,1.863687E2,1.3287158E0,4.441109E1,3.596291E2,4.2191477E0,1.9013289E2,1.3060964E3,2.2443747E2,3.8579733E2,3.873406E1,1.1087935E1,1.5199038E0,1.0475627E3,1.9067413E0,2.0503042E0,2.3664246E3,1.5369409E1,1.6878181E1,9.7195685E2,1.4351576E2,2.016157E1,1.0035017E0,2.8642667E2,2.880954E1,2.442494E1,8.825494E1,1.2641449E0,2.748166E0,3.203375E1,8.633486E0,6.833311E0,4.7702684E0,5.548784E1,6.417844E0,6.8548226E0,1.0780671E0,2.1875263E1,2.8261933E0,1.5512905E1,1.5966572E1,1.2611388E2,6.025482E1,3.8010372E1,6.4007177E0,1.6251573E2,1.9711336E2,1.4432331E0,2.7759147E0,1.5824643E2,3.1886469E1,1.5296805E2,1.1531284E3,7.473568E1,1.497018E2,1.3648781E2,2.4930954E2,2.226178E1,1.6472277E1],"tree_param":{"num_deleted":"0","num_feature":"325","num_nodes":"107","size_leaf_vector":"1"}},{"base_weights":[-3.3897308E-1,-3.056216E-1,-8.65296E0,-4.758482E-1,2.0135623E-1,-1.627927E1,-2.7218347E0,-4.787572E-1,6.5340203E-1,2.2715938E-1,-1.7692178E0,-6.964769E0,-5.740741E-1,3.9880604E-1,-2.1356304E0,-4.8168874E-1,5.3521276E-1,-1.01588055E-1,1.2132623E0,8.175334E-2,4.3994296E-1,-1.1868724E0,-8.266782E-1,8.8314587E-1,-1.9813739E-1,-4.826892E-1,1.4771149E-1,-1.5523674E-1,3.9299217E-1,4.416717E-2,5.05873E-1,3.7214884E-1,-1.9404957E-2,1.9934891E0,4.0725046E-1,-1.0757114E0,5.5942915E-2,8.8915735E-2,3.7584183E-1,-1.468339E-1,-9.390059E-2,-1.078724E-1,7.299058E-2,-2.434477E-2,1.5487544E-1,-4.8515294E-2,5.5764105E-2,1.4085701E-1,7.351225E-1,1.4981535E-1,-1.5605163E-2,-1.2779807E-1,-4.1420415E-1],"categories":[],"categories_nodes":[],"categories_segments":[],"categories_sizes":[],"default_left":[0,0,0,1,0,0,0,0,1,0,0,0,0,1,0,1,0,0,0,1,0,0,1,1,0,0,0,0,0,0,0,0,0,0,0,0,0,0,0,0,0,0,0,0,0,0,0,0,0,0,0,0,0],"id":13,"left_children":[1,3,5,7,9,11,13,15,17,19,21,-1,-1,23,-1,25,27,-1,29,31,33,-1,35,37,-1,39,-1,41,-1,-1,-1,43,45,47,49,51,-1,-1,-1,-1,-1,-1,-1,-1,-1,-1,-1,-1,-1,-1,-1,-1,-1],"loss_changes":[7.2996204E2,2.2728896E2,4.3152515E2,6.787903E0,3.4085045E1,3.9417383E2,1.00511055E2,6.1035767E0,3.458583E0,2.0222488E1,1.4613432E1,0E0,0E0,3.2051177E0,0E0,2.149231E0,3.48952E0,0E0,1.630466E0,1.1469515E1,1.2676357E1,0E0,2.0492768E0,4.8213744E-1,0E0,2.0940857E0,0E0,4.248247E-1,0E0,0E0,0E0,6.629978E0,8.512172E0,2.482027E0,1.1085011E1,6.0647774E-1,0E0,0E0,0E0,0E0,0E0,0E0,0E0,0E0,0E0,0E0,0E0,0E0,0E0,0E0,0E0,0E0,0E0],"parents":[2147483647,0,0,1,1,2,2,3,3,4,4,5,5,6,6,7,7,8,8,9,9,10,10,13,13,15,15,16,16,18,18,19,19,20,20,22,22,23,23,25,25,27,27,31,31,32,32,33,33,34,34,35,35],"right_children":[2,4,6,8,10,12,14,16,18,20,22,-1,-1,24,-1,26,28,-1,30,32,34,-1,36,38,-1,40,-1,42,-1,-1,-1,44,46,48,50,52,-1,-1,-1,-1,-1,-1,-1,-1,-1,-1,-1,-1,-1,-1,-1,-1,-1],"split_conditions":[2.926873E0,-1.31459E-2,2.00001E0,9.441736E-1,2.226713E0,1.675228E0,2.4560367E-1,1.3313763E-1,3.0573538E-1,1.5394523E0,4.4863133E0,-6.964769E0,-5.740741E-1,3.0573538E-1,-2.1356304E0,5.015653E-1,8.116865E-2,-1.01588055E-1,4.1241613E-1,4.709E-2,7.9238105E-1,-1.1868724E0,1.2056082E-1,5.7482594E-1,-1.9813739E-1,-6.8611884E-3,1.4771149E-1,5.050634E-1,3.9299217E-1,4.416717E-2,5.05873E-1,3.8806757E-1,1.8680339E-1,6.900901E-1,2.993562E-1,9.273421E-1,5.5942915E-2,8.8915735E-2,3.7584183E-1,-1.468339E-1,-9.390059E-2,-1.078724E-1,7.299058E-2,-2.434477E-2,1.5487544E-1,-4.8515294E-2,5.5764105E-2,1.4085701E-1,7.351225E-1,1.4981535E-1,-1.5605163E-2,-1.2779807E-1,-4.1420415E-1],"split_indices":[5,8,283,182,14,2,15,5,300,15,14,0,0,300,0,315,4,0,230,234,156,0,230,266,0,9,0,226,0,0,0,287,8,287,7,13,0,0,0,0,0,0,0,0,0,0,0,0,0,0,0,0,0],"split_type":[0,0,0,0,0,0,0,0,0,0,0,0,0,0,0,0,0,0,0,0,0,0,0,0,0,0,0,0,0,0,0,0,0,0,0,0,0,0,0,0,0,0,0,0,0,0,0,0,0,0,0,0,0],"sum_hessian":[2.6410825E3,2.631563E3,9.51973E0,1.9701217E3,6.614412E2,3.4014225E0,6.1183066E0,1.9656342E3,4.487493E0,6.537654E2,7.675828E0,1.8783674E0,1.5230551E0,4.110357E0,2.0079498E0,1.9604911E3,5.143127E0,1.7614675E0,2.7260253E0,3.891935E2,2.6457187E2,1.3487734E0,6.3270545E0,2.9347367E0,1.1756201E0,1.9589834E3,1.5076562E0,3.1423597E0,2.0007672E0,1.240766E0,1.4852593E0,9.985642E1,2.893371E2,4.2167163E0,2.6035516E2,5.029147E0,1.2979076E0,1.8306818E0,1.104055E0,1.8821501E3,7.6833206E1,2.1419241E0,1.0004356E0,2.4192347E1,7.566408E1,1.7100278E2,1.1833432E2,1.4403366E0,2.7763798E0,2.1677951E2,4.357565E1,2.3721883E0,2.6569586E0],"tree_param":{"num_deleted":"0","num_feature":"325","num_nodes":"53","size_leaf_vector":"1"}},{"base_weights":[2.2352025E-1,-4.6913716E-1,1.9734219E1,-1.4946222E-1,1.7607433E-1,-1.2321619E-1,7.811565E-1,1.4564316E0,-9.5856525E-2,6.5648603E-1,4.734983E-2],"categories":[],"categories_nodes":[],"categories_segments":[],"categories_sizes":[],"default_left":[0,0,0,0,0,0,1,0,0,0,0],"id":14,"left_children":[1,3,-1,-1,5,-1,7,9,-1,-1,-1],"loss_changes":[9.40296E3,3.9370995E0,0E0,0E0,3.7247567E0,0E0,4.2296104E0,2.8086958E0,0E0,0E0,0E0],"parents":[2147483647,0,0,1,1,4,4,6,6,7,7],"right_children":[2,4,-1,-1,6,-1,8,10,-1,-1,-1],"split_conditions":[2.993562E-1,5.5431746E-2,1.9734219E1,-1.4946222E-1,1.2159902E0,-1.2321619E-1,3.0944237E-1,5.8108956E-1,-9.5856525E-2,6.5648603E-1,4.734983E-2],"split_indices":[7,8,0,0,15,0,266,300,0,0,0],"split_type":[0,0,0,0,0,0,0,0,0,0,0],"sum_hessian":[2.0539444E2,2.0422946E2,1.1649823E0,1.9564255E2,8.586909E0,4.5224013E0,4.0645075E0,2.3187327E0,1.7457747E0,1.0447987E0,1.273934E0],"tree_param":{"num_deleted":"0","num_feature":"325","num_nodes":"11","size_leaf_vector":"1"}},{"base_weights":[4.1959587E-2,2.089545E-1,-4.341837E-1,5.0216603E-1,1.3986988E-1,-2.636169E-1,-5.667308E-1,5.498221E-1,2.5331149E-1,1.9869985E-1,-1.1304583E-2,-1.2948318E-2,-3.316478E-1,3.1409895E-1,-5.7600135E-1,5.508284E-1,-3.5621122E-1,3.0096596E-1,8.974957E-2,3.299756E-1,1.6505232E-1,7.057088E-2,-2.5394982E-1,5.719032E-2,-5.178099E-1,-1.5780017E-1,-4.5804906E-1,1.1858247E-1,6.707495E-1,-4.8372453E-1,-6.342253E-1,-2.0045939E-1,5.5180514E-1,-1.717292E-1,-1.0355293E-3,4.5515975E-1,2.5050128E-1,2.6972184E-2,4.4860283E-1,5.548771E-1,2.9680008E-1,9.179455E-2,2.8808433E-1,-2.902619E-1,1.3351484E-1,-3.0218974E-1,5.7979535E-2,1.9461861E-1,-6.0077734E-2,-5.5629903E-1,1.641152E-1,-1.07455455E-1,-6.5764695E-1,-5.006171E-1,-1.5251401E-1,3.0054045E-1,-2.8938612E-1,-2.8668332E-1,-5.9387827E-1,-6.380879E-1,2.8427098E-2,1.0776254E-1,-1.6601038E-1,-6.292475E-2,1.6566019E-1,-3.93299E-2,1.422645E-1,4.54448E-2,1.0312756E-1,-1.8130869E-1,1.7474353E-2,-3.7103258E-2,1.5050747E-1,1.6767517E-1,-5.9398934E-2,7.096575E-2,1.15513235E-1,3.8666923E-3,5.6877065E-2,9.4253555E-2,-4.831945E-2,7.885359E-2,-1.0439705E-1,4.8947897E-2,-1.012907E-1,-7.618782E-2,-2.2547126E-1,6.483641E-2,-1.0141026E-1,7.32744E-2,-6.781753E-2,-8.6347E-2,1.8772617E-2,-9.188467E-2,-2.2504671E-1,2.6203377E-2,-6.937535E-2,-2.4507761E-1,-1.3457163E-1,-1.2643063E-1,-1.9163771E-1,-8.518137E-3,-1.8671401E-1,-1.699523E-2,1.8061106E-1,-2.3244385E-1,1.0682972E-1,-1.3142008E-1,-5.4268513E-2,-1.8215E-1,9.439875E-2,7.324216E-2,-1.9196394E-1,8.090384E-1,-1.4290069E-1],"categories":[],"categories_nodes":[],"categories_segments":[],"categories_sizes":[],"default_left":[0,0,0,0,0,0,0,0,1,0,0,0,0,0,0,0,0,0,1,0,0,0,1,0,0,1,0,0,0,0,0,0,0,0,0,0,0,0,0,1,1,1,1,0,0,1,0,1,0,0,0,0,1,0,0,0,1,0,0,0,0,0,0,0,0,0,0,0,0,0,0,0,0,0,0,0,0,0,0,0,0,0,0,0,0,0,0,0,0,0,0,0,0,0,0,0,0,0,0,0,0,0,0,0,0,0,0,0,0,0,0,0,0,0,0],"id":15,"left_children":[1,3,5,7,9,11,13,15,17,19,21,23,25,27,29,31,33,35,37,39,41,43,45,47,49,51,53,55,-1,57,59,61,63,-1,-1,65,67,69,71,73,75,77,79,81,83,85,87,89,91,93,-1,95,97,99,101,103,105,107,109,111,113,-1,-1,-1,-1,-1,-1,-1,-1,-1,-1,-1,-1,-1,-1,-1,-1,-1,-1,-1,-1,-1,-1,-1,-1,-1,-1,-1,-1,-1,-1,-1,-1,-1,-1,-1,-1,-1,-1,-1,-1,-1,-1,-1,-1,-1,-1,-1,-1,-1,-1,-1,-1,-1,-1],"loss_changes":[1.6740104E3,3.1565424E2,1.2344055E2,3.5103577E1,1.1220099E2,4.079274E1,2.5292908E1,2.4694214E0,3.710249E0,4.0060028E1,7.024795E1,1.8149736E1,4.1275436E1,1.2012494E1,1.6045593E1,1.9384155E0,2.5532666E-1,2.7718735E0,2.4570487E0,1.3652191E1,6.514511E1,6.0089066E1,1.3441368E1,7.26709E0,2.8667011E0,1.990162E1,1.4086624E1,2.3670564E0,0E0,2.5478027E1,4.786499E0,9.8244727E-1,8.6517334E-1,0E0,0E0,1.0701103E0,2.5487118E0,1.8981607E0,5.55907E-1,8.3125305E-1,8.4999695E0,3.498197E1,3.1673447E1,1.2640732E1,3.1508259E1,1.6558167E1,7.608525E0,4.387769E0,6.8249416E0,2.7187023E0,0E0,1.7437225E1,2.0454903E0,1.0183258E1,7.8322773E0,2.374452E0,3.4040341E0,6.7375603E0,9.330627E0,3.0841064E0,1.7115322E1,0E0,0E0,0E0,0E0,0E0,0E0,0E0,0E0,0E0,0E0,0E0,0E0,0E0,0E0,0E0,0E0,0E0,0E0,0E0,0E0,0E0,0E0,0E0,0E0,0E0,0E0,0E0,0E0,0E0,0E0,0E0,0E0,0E0,0E0,0E0,0E0,0E0,0E0,0E0,0E0,0E0,0E0,0E0,0E0,0E0,0E0,0E0,0E0,0E0,0E0,0E0,0E0,0E0,0E0],"parents":[2147483647,0,0,1,1,2,2,3,3,4,4,5,5,6,6,7,7,8,8,9,9,10,10,11,11,12,12,13,13,14,14,15,15,16,16,17,17,18,18,19,19,20,20,21,21,22,22,23,23,24,24,25,25,26,26,27,27,29,29,30,30,31,31,32,32,35,35,36,36,37,37,38,38,39,39,40,40,41,41,42,42,43,43,44,44,45,45,46,46,47,47,48,48,49,49,51,51,52,52,53,53,54,54,55,55,56,56,57,57,58,58,59,59,60,60],"right_children":[2,4,6,8,10,12,14,16,18,20,22,24,26,28,30,32,34,36,38,40,42,44,46,48,50,52,54,56,-1,58,60,62,64,-1,-1,66,68,70,72,74,76,78,80,82,84,86,88,90,92,94,-1,96,98,100,102,104,106,108,110,112,114,-1,-1,-1,-1,-1,-1,-1,-1,-1,-1,-1,-1,-1,-1,-1,-1,-1,-1,-1,-1,-1,-1,-1,-1,-1,-1,-1,-1,-1,-1,-1,-1,-1,-1,-1,-1,-1,-1,-1,-1,-1,-1,-1,-1,-1,-1,-1,-1,-1,-1,-1,-1,-1,-1],"split_conditions":[-4.4542894E-2,-6.0513064E-2,-3.2424755E-2,-5.252985E-2,-5.9008177E-2,-7.7858485E-2,-1.048245E0,5.101282E0,2.8645608E-1,-7.247828E-1,1.2159902E0,-2.0252133E-2,-5.5647254E-2,5.252041E-1,-3.840062E-2,7.616615E-1,2.4079949E-1,-7.247828E-1,3.911487E-1,-1.048245E0,5.690658E-1,-4.9348304E-1,3.566505E-1,-4.99282E-2,5.5833974E0,3.510867E-1,8.570877E-1,6.934676E-2,6.707495E-1,8.92528E-1,3.7430916E0,-5.443034E-2,2.1524914E-1,-1.717292E-1,-1.0355293E-3,5.104635E-1,-2.0722076E-1,3.3563358E-1,1.2266826E-1,5.707463E-1,2.874687E-1,2.5271487E-1,7.575864E-1,-7.7858485E-2,-4.086051E-2,5.300363E-1,-5.5647254E-2,4.5860523E-1,1.9648243E-1,-2.180169E-3,1.641152E-1,1.2159902E0,1.8051153E-1,1.5394523E0,-3.7839394E-2,8.85829E-1,1.4275531E-1,1.9648243E-1,2.031497E0,5.9974176E-1,1.5506275E-1,1.0776254E-1,-1.6601038E-1,-6.292475E-2,1.6566019E-1,-3.93299E-2,1.422645E-1,4.54448E-2,1.0312756E-1,-1.8130869E-1,1.7474353E-2,-3.7103258E-2,1.5050747E-1,1.6767517E-1,-5.9398934E-2,7.096575E-2,1.15513235E-1,3.8666923E-3,5.6877065E-2,9.4253555E-2,-4.831945E-2,7.885359E-2,-1.0439705E-1,4.8947897E-2,-1.012907E-1,-7.618782E-2,-2.2547126E-1,6.483641E-2,-1.0141026E-1,7.32744E-2,-6.781753E-2,-8.6347E-2,1.8772617E-2,-9.188467E-2,-2.2504671E-1,2.6203377E-2,-6.937535E-2,-2.4507761E-1,-1.3457163E-1,-1.2643063E-1,-1.9163771E-1,-8.518137E-3,-1.8671401E-1,-1.699523E-2,1.8061106E-1,-2.3244385E-1,1.0682972E-1,-1.3142008E-1,-5.4268513E-2,-1.8215E-1,9.439875E-2,7.324216E-2,-1.9196394E-1,8.090384E-1,-1.4290069E-1],"split_indices":[8,7,8,8,7,15,15,3,311,15,15,5,7,5,14,33,234,15,314,15,15,1,314,5,3,296,1,5,0,15,5,5,227,0,0,155,1,247,254,301,287,287,317,15,5,234,7,227,1,5,0,15,300,15,7,314,230,1,1,99,12,0,0,0,0,0,0,0,0,0,0,0,0,0,0,0,0,0,0,0,0,0,0,0,0,0,0,0,0,0,0,0,0,0,0,0,0,0,0,0,0,0,0,0,0,0,0,0,0,0,0,0,0,0,0],"split_type":[0,0,0,0,0,0,0,0,0,0,0,0,0,0,0,0,0,0,0,0,0,0,0,0,0,0,0,0,0,0,0,0,0,0,0,0,0,0,0,0,0,0,0,0,0,0,0,0,0,0,0,0,0,0,0,0,0,0,0,0,0,0,0,0,0,0,0,0,0,0,0,0,0,0,0,0,0,0,0,0,0,0,0,0,0,0,0,0,0,0,0,0,0,0,0,0,0,0,0,0,0,0,0,0,0,0,0,0,0,0,0,0,0,0,0],"sum_hessian":[2.1051018E4,1.5585403E4,5.4656147E3,2.9707144E3,1.2614688E4,2.3913372E3,3.0742776E3,2.4922373E3,4.7847708E2,9.080624E3,3.5340642E3,5.107189E2,1.8806183E3,3.1676685E1,3.042601E3,2.489864E3,2.3734226E0,3.6987292E2,1.0860417E2,1.8508256E3,7.229799E3,2.6429622E3,8.91102E2,4.491999E2,6.151903E1,7.926647E2,1.0879536E3,2.9715178E1,1.9615072E0,1.1806866E3,1.8619144E3,2.9677317E0,2.4868962E3,1.0854113E0,1.2880113E0,8.922584E1,2.8064706E2,9.3348976E1,1.52552E1,2.3590013E2,1.6149254E3,4.532643E3,2.6971558E3,3.9202527E2,2.2509368E3,7.717778E2,1.19324265E2,2.0651826E2,2.4268163E2,5.9833935E1,1.6850965E0,7.212365E2,7.142818E1,9.543519E2,1.3360162E2,2.073188E1,8.983297E0,4.2466156E2,7.560251E2,1.8511609E3,1.0753533E1,1.140768E0,1.8269638E0,1.0160308E0,2.4858801E3,2.6237178E0,8.660212E1,1.3739174E2,1.4325534E2,3.5412438E0,8.980773E1,1.1821655E0,1.4073034E1,2.3489722E2,1.0029162E0,9.618881E2,6.5303735E2,2.509227E3,2.023416E3,2.5493472E3,1.478086E2,3.671335E1,3.5531192E2,2.1183066E3,1.3263023E2,6.9838763E2,7.339013E1,8.5596794E1,3.3727474E1,1.8510043E2,2.1417833E1,8.4476585E1,1.5820503E2,2.7258545E1,3.257539E1,2.8036288E2,4.408736E2,3.889197E1,3.25362E1,6.092625E2,3.4508942E2,1.0652287E2,2.7078749E1,9.861174E0,1.08707075E1,5.012996E0,3.9703007E0,1.7339355E2,2.51268E2,7.4545374E2,1.05713215E1,3.477998E0,1.8476829E3,1.0197977E0,9.733735E0],"tree_param":{"num_deleted":"0","num_feature":"325","num_nodes":"115","size_leaf_vector":"1"}},{"base_weights":[1.4365634E-2,-1.8028204E-1,2.001154E-1,-4.58155E-1,-9.059848E-2,2.1696214E-1,-3.2944354E-1,-5.275784E-1,-1.3379923E-1,-2.456633E-1,-5.240081E-2,2.4900492E-2,2.6108202E-1,-1.3561026E-2,-4.3045646E-1,1.1845962E-1,-5.285998E-1,-3.3688772E-1,-6.4897634E-2,-1.580139E-1,-2.0542079E-1,3.1263374E-2,-1.9969419E-1,1.3470226E-2,1.2419217E0,2.76476E-1,-1.0181923E-2,-2.801043E-1,2.885925E-1,4.3811512E-1,-4.4348967E-1,-1.041377E-1,1.6395423E-1,-5.2918774E-1,6.285116E-2,-3.8129243E-1,2.8317925E-1,-3.437471E-1,-7.911031E-3,-1.3334177E-1,-3.0935773E-1,1.2085158E-1,-8.037502E-2,-2.3591396E-1,4.09415E-1,-1.505993E-1,8.942587E-2,1.3153187E0,4.624269E-2,2.0694669E-1,3.413351E-1,-1.5844834E-1,2.1885027E-1,8.949411E-1,-4.0398768E-1,6.5410227E-1,-2.6702199E-3,-9.3281016E-2,3.0165303E-1,-4.527756E-1,1.6524911E-1,-1.5962672E-1,-1.0650903E-1,-1.2750386E-1,-1.1598876E-2,3.4050226E-1,-2.694069E-2,-1.24818586E-1,6.740112E-2,2.3756525E-1,-7.649899E-3,1.36426585E-2,-5.538997E-2,3.2357088E-1,-9.464768E-2,5.5456605E-2,-2.8091183E-2,-3.0109527E-2,1.3056508E-1,-2.5683945E-2,-1.0225876E-1,-2.5702333E-2,2.1328607E-1,-2.2900973E-2,-8.983116E-2,5.1094943E-1,2.3864156E-2,2.762239E-1,5.601924E-1,2.3754379E-2,1.2828784E-1,1.17898814E-1,2.4508022E-2,1.1781738E-1,-7.102843E-2,2.8212082E-1,4.25761E-2,3.8524508E-1,2.5307555E-2,9.087512E-2,-1.5261754E-1,-1.2034207E-1,2.5428253E-1,2.0878416E-1,-5.933655E-2,-3.8194574E-2,-1.4056309E-1],"categories":[],"categories_nodes":[],"categories_segments":[],"categories_sizes":[],"default_left":[0,0,0,0,0,0,0,0,0,0,0,0,0,1,0,0,0,1,0,0,1,1,1,0,1,0,0,0,1,1,1,0,0,0,0,1,0,1,0,0,0,0,1,0,0,0,0,0,0,0,0,0,0,0,0,0,0,0,0,0,0,0,0,0,0,0,0,0,0,0,0,0,0,0,0,0,0,0,0,0,0,0,0,0,0,0,0,0,0,0,0,0,0,0,0,0,0,0,0,0,0,0,0,0,0,0,0],"id":16,"left_children":[1,3,5,7,9,11,13,15,17,19,21,23,25,27,29,31,33,35,37,-1,39,41,43,45,47,49,51,53,55,57,59,-1,-1,61,-1,63,65,67,69,71,73,75,77,79,81,83,85,87,-1,89,91,93,95,97,99,101,103,-1,-1,105,-1,-1,-1,-1,-1,-1,-1,-1,-1,-1,-1,-1,-1,-1,-1,-1,-1,-1,-1,-1,-1,-1,-1,-1,-1,-1,-1,-1,-1,-1,-1,-1,-1,-1,-1,-1,-1,-1,-1,-1,-1,-1,-1,-1,-1,-1,-1],"loss_changes":[6.112555E2,2.056883E2,7.7247955E1,4.528183E1,3.6961185E1,7.104288E1,8.517393E0,1.157135E0,4.9655657E0,1.3842911E1,6.1743248E1,2.1787193E1,2.8474731E1,5.376503E0,2.485096E0,8.74315E-1,8.295593E-1,2.587432E0,4.2459555E0,0E0,8.054588E0,3.1973318E1,4.013746E1,1.9377281E1,9.6076584E-1,2.9026001E1,1.2501105E1,5.5209866E0,3.3351047E0,1.7979143E0,2.094818E0,0E0,0E0,6.474304E-1,0E0,1.2487621E0,2.1962113E0,1.9573894E0,3.1575356E0,5.877204E0,4.101639E0,2.4363306E1,1.4714701E1,2.700264E1,1.5322842E1,5.416149E0,1.6806458E1,1.2251625E0,0E0,8.783647E1,4.472339E1,9.737161E0,7.8978415E0,1.056248E0,2.57904E0,3.1762462E0,2.648715E0,0E0,0E0,9.593773E-1,0E0,0E0,0E0,0E0,0E0,0E0,0E0,0E0,0E0,0E0,0E0,0E0,0E0,0E0,0E0,0E0,0E0,0E0,0E0,0E0,0E0,0E0,0E0,0E0,0E0,0E0,0E0,0E0,0E0,0E0,0E0,0E0,0E0,0E0,0E0,0E0,0E0,0E0,0E0,0E0,0E0,0E0,0E0,0E0,0E0,0E0,0E0],"parents":[2147483647,0,0,1,1,2,2,3,3,4,4,5,5,6,6,7,7,8,8,9,9,10,10,11,11,12,12,13,13,14,14,15,15,16,16,17,17,18,18,20,20,21,21,22,22,23,23,24,24,25,25,26,26,27,27,28,28,29,29,30,30,33,33,35,35,36,36,37,37,38,38,39,39,40,40,41,41,42,42,43,43,44,44,45,45,46,46,47,47,49,49,50,50,51,51,52,52,53,53,54,54,55,55,56,56,59,59],"right_children":[2,4,6,8,10,12,14,16,18,20,22,24,26,28,30,32,34,36,38,-1,40,42,44,46,48,50,52,54,56,58,60,-1,-1,62,-1,64,66,68,70,72,74,76,78,80,82,84,86,88,-1,90,92,94,96,98,100,102,104,-1,-1,106,-1,-1,-1,-1,-1,-1,-1,-1,-1,-1,-1,-1,-1,-1,-1,-1,-1,-1,-1,-1,-1,-1,-1,-1,-1,-1,-1,-1,-1,-1,-1,-1,-1,-1,-1,-1,-1,-1,-1,-1,-1,-1,-1,-1,-1,-1,-1],"split_conditions":[-5.940948E-2,-6.0513064E-2,6.4643584E-2,-5.252985E-2,-7.247828E-1,-4.9775727E-2,1.1365789E-2,7.616615E-1,-7.247828E-1,-1.048245E0,5.690658E-1,-4.0347546E-2,3.9182425E-2,4.754001E-1,4.3853068E-1,3.7476444E-1,3.8036873E0,3.877505E-1,2.8038695E-1,-1.580139E-1,2.874687E-1,2.5496033E-1,7.575864E-1,-4.0132064E-1,4.9347803E-1,8.92528E-1,7.477208E-1,3.354207E-1,3.3508566E-1,1.7764685E-1,1E0,-1.041377E-1,1.6395423E-1,-3.572427E-2,6.285116E-2,7.0786375E-1,4.8254427E-1,6.384172E-1,1.6998823E-1,5.453223E-1,6.6319704E-1,1.781323E-1,7.237235E-1,-3.1732163E-1,2.0237254E-1,5.920898E-1,7.0120615E-1,-2.4869204E-2,4.624269E-2,-4.1938487E-2,-1.672626E-2,-4.0132064E-1,4.664699E-1,2.00001E0,-7.247828E-1,2.00001E0,2.00001E0,-9.3281016E-2,3.0165303E-1,3.8583365E-1,1.6524911E-1,-1.5962672E-1,-1.0650903E-1,-1.2750386E-1,-1.1598876E-2,3.4050226E-1,-2.694069E-2,-1.24818586E-1,6.740112E-2,2.3756525E-1,-7.649899E-3,1.36426585E-2,-5.538997E-2,3.2357088E-1,-9.464768E-2,5.5456605E-2,-2.8091183E-2,-3.0109527E-2,1.3056508E-1,-2.5683945E-2,-1.0225876E-1,-2.5702333E-2,2.1328607E-1,-2.2900973E-2,-8.983116E-2,5.1094943E-1,2.3864156E-2,2.762239E-1,5.601924E-1,2.3754379E-2,1.2828784E-1,1.17898814E-1,2.4508022E-2,1.1781738E-1,-7.102843E-2,2.8212082E-1,4.25761E-2,3.8524508E-1,2.5307555E-2,9.087512E-2,-1.5261754E-1,-1.2034207E-1,2.5428253E-1,2.0878416E-1,-5.933655E-2,-3.8194574E-2,-1.4056309E-1],"split_indices":[7,7,7,8,15,8,8,33,15,15,15,7,8,284,32,219,15,227,230,0,287,287,317,15,224,15,1,250,300,230,201,0,0,5,0,311,317,284,266,284,210,1,284,1,262,300,150,12,0,5,8,15,314,155,15,17,18,0,0,314,0,0,0,0,0,0,0,0,0,0,0,0,0,0,0,0,0,0,0,0,0,0,0,0,0,0,0,0,0,0,0,0,0,0,0,0,0,0,0,0,0,0,0,0,0,0,0],"split_type":[0,0,0,0,0,0,0,0,0,0,0,0,0,0,0,0,0,0,0,0,0,0,0,0,0,0,0,0,0,0,0,0,0,0,0,0,0,0,0,0,0,0,0,0,0,0,0,0,0,0,0,0,0,0,0,0,0,0,0,0,0,0,0,0,0,0,0,0,0,0,0,0,0,0,0,0,0,0,0,0,0,0,0,0,0,0,0,0,0,0,0,0,0,0,0,0,0,0,0,0,0,0,0,0,0,0,0],"sum_hessian":[1.6904174E4,8.254397E3,8.649776E3,2.0130653E3,6.241332E3,8.383659E3,2.6611713E2,1.6576454E3,3.5542E2,1.2325045E3,5.0088276E3,1.5664011E3,6.817258E3,6.475446E1,2.0136267E2,2.4351244E0,1.6552102E3,8.905112E1,2.663689E2,1.5285966E2,1.0796449E3,3.1948865E3,1.8139413E3,1.552828E3,1.3573097E1,6.451142E3,3.6611554E2,3.444338E1,3.0311089E1,2.4946723E0,1.98868E2,1.2569883E0,1.1781361E0,1.6541757E3,1.034578E0,8.3459435E1,5.5916853E0,4.434514E1,2.2202376E2,6.3887537E2,4.407695E2,1.7724435E3,1.4224429E3,1.7127102E3,1.012311E2,4.9107938E2,1.0617487E3,1.25191965E1,1.053901E0,3.1155E3,3.335642E3,2.2243079E2,1.4368474E2,2.691374E0,3.1752003E1,1.2889776E1,1.7421312E1,1.2700267E0,1.2246456E0,1.9756757E2,1.3004396E0,1.6250485E3,2.912722E1,7.3801704E1,9.657731E0,1.0806326E0,4.5110526E0,3.9578007E1,4.767133E0,3.8302674E0,2.181935E2,1.4243117E2,4.9644418E2,1.1703106E0,4.3959918E2,1.3652032E3,4.072403E2,1.3701268E3,5.231597E1,7.0494604E2,1.00776416E3,3.858883E1,6.2642273E1,3.286248E2,1.6245457E2,5.4171615E0,1.0563315E3,8.856472E0,3.6627247E0,1.97399E3,1.1415101E3,2.781661E3,5.5398126E2,2.7172693E1,1.9525809E2,1.2761941E1,1.3092279E2,1.4235915E0,1.2677826E0,3.8532293E0,2.7898773E1,1.8311268E0,1.1058649E1,3.2430031E0,1.41783085E1,9.548848E0,1.880187E2],"tree_param":{"num_deleted":"0","num_feature":"325","num_nodes":"107","size_leaf_vector":"1"}},{"base_weights":[-4.428394E-2,-3.4573576E-1,4.1876596E-1,-3.87197E-1,-7.202973E-2,3.8086903E-1,2.8353038E0,-5.0085634E-1,-3.5661903E-1,-1.2480291E-1,3.765749E-1,1.9238786E-1,4.5328203E-1,1.9942896E1,3.4487128E-1,-5.032652E-1,4.438621E-2,8.632681E-2,-3.6095086E-1,-2.509649E-1,1.0685842E-1,5.328322E-1,1.778292E-2,5.2433893E-2,3.443571E-1,4.727921E-1,2.3329298E-1,1.6142756E1,6.6404474E-1,-3.720032E-1,8.283039E-1,-5.0448334E-1,1.5658103E-2,1.5600985E-1,-1.04236715E-1,-1.887804E-2,3.5530433E-1,-3.375748E-1,-4.3779737E-1,-1.3206564E-3,-3.291045E-1,1.0938753E-3,4.5409107E-1,2.6349896E-1,7.5782466E-1,3.0418393E-1,-1.0436442E-1,-9.8167E-2,3.2587776E-1,2.5168186E-1,9.844202E-1,4.843611E-1,9.785762E-2,1.6142133E-1,7.0680344E-1,-1.1008995E-1,5.4800725E-1,-1.4569399E-1,1.7455311E-1,1.2313536E0,1.5532316E-1,-1.5170927E-1,1.1351125E-2,3.144089E-1,-3.9959937E-2,-9.08493E-2,-1.1998234E-1,1.9862588E-1,-1.3297291E-1,-3.4868244E-2,1.3441862E-1,2.2640033E-1,-1.0183556E-1,-4.3892104E-2,8.338777E-2,2.3396264E-1,-4.2765096E-2,1.2333792E-1,-1.3960296E-1,2.6640004E-1,-4.544758E-2,-8.6264886E-2,1.6200605E-1,6.2492397E-2,-6.906621E-2,1.7053525E-1,-2.221718E-2,1.9465326E-1,4.345333E-2,2.1116732E-1,4.5431748E-1,1.4246891E-1,2.926417E-1,-1.1556828E-1,9.6290216E-2,-3.4153191E-3,1.2506808E-1,3.1575766E-1,2.0206666E-2,2.1678616E-1,-9.740081E-2,-3.3872027E-2,4.4885185E-1,3.9448187E-1,-5.623749E-2],"categories":[],"categories_nodes":[],"categories_segments":[],"categories_sizes":[],"default_left":[0,0,0,0,0,0,0,0,0,0,1,0,1,1,1,1,0,1,1,0,0,1,0,1,0,0,1,0,1,1,0,0,0,0,0,0,0,0,0,0,0,1,1,1,1,0,0,1,0,0,0,1,0,0,0,0,0,0,0,0,1,0,0,0,0,0,0,0,0,0,0,0,0,0,0,0,0,0,0,0,0,0,0,0,0,0,0,0,0,0,0,0,0,0,0,0,0,0,0,0,0,0,0,0,0],"id":17,"left_children":[1,3,5,7,9,11,13,15,17,19,21,23,25,27,29,31,33,35,37,39,41,43,45,47,49,51,53,-1,55,57,59,61,-1,-1,-1,63,-1,65,67,69,71,73,75,77,79,-1,81,83,85,87,89,91,93,95,97,-1,-1,-1,99,101,103,-1,-1,-1,-1,-1,-1,-1,-1,-1,-1,-1,-1,-1,-1,-1,-1,-1,-1,-1,-1,-1,-1,-1,-1,-1,-1,-1,-1,-1,-1,-1,-1,-1,-1,-1,-1,-1,-1,-1,-1,-1,-1,-1,-1],"loss_changes":[1.0156024E3,4.9980896E1,2.6165732E2,1.3121277E1,1.3800611E1,3.8480896E1,1.8738075E3,1.0846405E0,5.8239136E0,1.5240964E1,3.4327183E0,1.6700455E1,8.648621E0,3.6151614E3,1.4014689E1,5.71228E-1,1.0150187E0,3.4931417E0,5.2232666E0,6.5795975E0,6.765667E0,2.3900394E0,2.4982138E0,1.6932104E1,2.209581E1,8.079254E0,5.610691E0,0E0,6.155365E0,1.1170342E0,6.2999077E0,5.4833984E-1,0E0,0E0,0E0,3.6039162E0,0E0,4.856018E0,4.4503174E0,4.256148E0,3.1370754E0,5.844935E0,8.471931E0,2.4491768E0,2.8276625E0,0E0,2.3296945E0,1.0789217E1,1.4204306E1,1.3924511E1,5.9658737E0,7.9835815E0,